-1.823634095489978790e-02
-8.637456223368644714e-03
-3.256720304489135742e-02
1.048070285469293594e-02
3.205073997378349304e-02
-1.848670467734336853e-02
-1.524329709354788065e-04
4.231171309947967529e-02
2.380281314253807068e-02
-4.860877618193626404e-02
3.817493468523025513e-02
-2.213488891720771790e-02
2.670591697096824646e-02
3.751913085579872131e-02
-3.555183112621307373e-02
-1.748448051512241364e-02
9.816426783800125122e-03
-3.022753261029720306e-02
-4.486853256821632385e-02
-1.240502577275037766e-03
-2.946694567799568176e-02
3.869686741381883621e-03
-8.515392243862152100e-02
2.218128927052021027e-02
-7.436250150203704834e-02
1.148182246834039688e-02
6.625404115766286850e-03
-8.405702828895300627e-06
-3.802818246185779572e-03
-3.717594547197222710e-03
2.240397594869136810e-02
-1.397714298218488693e-02
-2.404782734811306000e-02
-6.580032408237457275e-02
1.253658812493085861e-02
1.013715192675590515e-02
2.970995195209980011e-02
-5.813721567392349243e-02
-3.369724145159125328e-03
-6.649339199066162109e-02
9.964385069906711578e-03
-4.049612674862146378e-03
-7.696290500462055206e-03
-3.096927516162395477e-02
-3.445106791332364082e-03
1.322535797953605652e-02
1.339837815612554550e-02
-3.577031940221786499e-02
-2.818707190454006195e-02
-9.059828706085681915e-03
-3.697971627116203308e-02
-5.522653227671980858e-04
3.367742523550987244e-03
2.105950936675071716e-02
-2.740949764847755432e-02
1.475758664309978485e-02
-5.977753316983580589e-04
-2.044498221948742867e-03
-2.183658815920352936e-02
1.928725279867649078e-02
1.578929135575890541e-03
-1.659462787210941315e-02
3.054134733974933624e-02
-6.081265583634376526e-02
3.539381176233291626e-02
7.160497829318046570e-03
2.816963754594326019e-02
6.821761280298233032e-02
-1.222914736717939377e-02
3.273587301373481750e-02
-4.705220833420753479e-02
3.903980925679206848e-02
-1.094050519168376923e-02
-2.023893874138593674e-03
-3.127794712781906128e-02
9.662166237831115723e-03
4.959190636873245239e-02
-1.246161200106143951e-02
2.976163849234580994e-02
2.576214075088500977e-02
1.042551640421152115e-02
-4.169232770800590515e-02
2.925693430006504059e-02
-1.048727147281169891e-02
