2.142158895730972290e-02
-2.072814851999282837e-02
1.197605673223733902e-02
-3.053276240825653076e-02
1.266110595315694809e-02
4.589181393384933472e-03
-8.993173018097877502e-03
-2.301500365138053894e-02
2.855899278074502945e-03
2.060561254620552063e-02
7.250701077282428741e-03
-4.435973614454269409e-02
2.896139770746231079e-02
1.649676263332366943e-02
6.867697811685502529e-04
-4.740104079246520996e-03
-1.392165292054414749e-02
1.476674247533082962e-02
-1.062954589724540710e-02
-5.216960236430168152e-02
1.621250808238983154e-02
-2.716474235057830811e-02
-1.986097171902656555e-02
-1.138665247708559036e-02
-3.374431515112519264e-03
1.114223059266805649e-02
3.907476365566253662e-02
8.547701872885227203e-03
6.110039725899696350e-02
-7.460342720150947571e-03
-1.210113987326622009e-02
4.184778034687042236e-02
-1.082108914852142334e-02
2.282288484275341034e-02
1.263648737221956253e-02
-1.599076762795448303e-02
-3.112352080643177032e-02
-1.523338444530963898e-02
-2.659853175282478333e-02
-2.523228712379932404e-02
6.416148040443658829e-03
-1.085587590932846069e-02
-1.814041472971439362e-02
1.941609755158424377e-02
1.335664000362157822e-02
2.718655951321125031e-02
-9.566022083163261414e-03
2.213300205767154694e-02
1.158657763153314590e-02
-3.989376872777938843e-02
-1.848024129867553711e-02
1.666052453219890594e-02
3.144406154751777649e-02
-1.993011124432086945e-02
-4.182871431112289429e-03
1.327439397573471069e-02
4.835849627852439880e-03
2.204330405220389366e-03
-1.903787441551685333e-02
-1.279491465538740158e-02
3.587558120489120483e-02
1.231768447905778885e-02
-4.991527646780014038e-03
3.383325785398483276e-02
-2.834460884332656860e-02
1.058563776314258575e-02
6.726596504449844360e-03
-1.255496311932802200e-02
-1.774770393967628479e-02
-9.799693943932652473e-04
-1.783335581421852112e-02
1.402986422181129456e-02
1.990601047873497009e-02
-2.294941991567611694e-02
2.443501912057399750e-02
2.945368643850088120e-03
4.463098943233489990e-03
-2.863136306405067444e-02
4.218882694840431213e-02
2.669586986303329468e-02
8.080612868070602417e-03
3.178209438920021057e-02
-1.266102120280265808e-02
-7.623204495757818222e-03
5.349205806851387024e-03
2.102795243263244629e-02
-2.284255996346473694e-02
4.088139533996582031e-02
2.984489127993583679e-02
3.818530961871147156e-02
-4.248218610882759094e-02
-6.736472249031066895e-03
5.571766290813684464e-03
-8.016950450837612152e-03
1.147554721683263779e-02
2.374196611344814301e-02
1.478955615311861038e-02
4.441818222403526306e-02
1.207847427576780319e-02
-3.572785109281539917e-02
-1.392269134521484375e-02
-1.525469822809100151e-03
-4.066089168190956116e-03
4.313803091645240784e-02
-8.082428015768527985e-03
-5.530129652470350266e-03
-3.427604213356971741e-02
3.833444043993949890e-02
-9.260229766368865967e-03
-1.043680869042873383e-02
1.931063830852508545e-02
4.804441239684820175e-03
-5.639721639454364777e-03
-1.516756601631641388e-04
1.546049606986343861e-03
-2.168252877891063690e-02
-4.048836417496204376e-03
-3.410202264785766602e-02
-8.985929191112518311e-03
1.083619147539138794e-02
