-1.959333941340446472e-02 -1.097479611635208130e-01 1.043219119310379028e-02 -1.508478820323944092e-01 -2.540280297398567200e-02 6.289263069629669189e-02 -1.648072451353073120e-01 -5.865728855133056641e-02 5.216379463672637939e-02 -3.320851922035217285e-02 9.216962382197380066e-03 9.841393679380416870e-02 -1.285398006439208984e-01 -1.708710044622421265e-01 -1.280409097671508789e-01 2.345958724617958069e-02 -2.399760670959949493e-02 -8.343457430601119995e-02 -1.111417114734649658e-01 -5.486549064517021179e-02 -1.774178743362426758e-01 1.362886726856231689e-01 -1.706775873899459839e-01 8.203645050525665283e-02 -1.215571910142898560e-01 6.095070764422416687e-02 -1.276692301034927368e-01 -1.077904030680656433e-01 1.753315143287181854e-02 5.772474780678749084e-02 -1.421722322702407837e-01 2.170819602906703949e-02 -1.795929372310638428e-01 1.153006497770547867e-02 -8.862598240375518799e-02 3.672573715448379517e-02 -1.140754893422126770e-01 1.171395741403102875e-02 1.348907798528671265e-01 2.792291902005672455e-02 -1.762374490499496460e-01 -9.846398606896400452e-03 -1.383733302354812622e-01 4.813718050718307495e-02 1.495962683111429214e-02 9.558490663766860962e-02 -9.589421749114990234e-02 1.271490007638931274e-01 -6.841380894184112549e-02 -6.190454121679067612e-03 9.047883003950119019e-02 1.925421059131622314e-01 -9.740794450044631958e-02 -3.837682306766510010e-03 1.386205852031707764e-01 -1.127117276191711426e-01 -1.435932070016860962e-01 1.221215426921844482e-01 3.415399417281150818e-02 1.243483126163482666e-01 -1.285258978605270386e-01 -1.350429505109786987e-01 1.433826237916946411e-01 7.831008732318878174e-02 1.139031723141670227e-01 -1.095085665583610535e-01 1.389448791742324829e-01 1.711001098155975342e-01 -9.688719362020492554e-02 7.876975461840629578e-03 3.024795837700366974e-02 -2.027105912566184998e-02 1.425612717866897583e-01 1.024166196584701538e-01 -1.855368465185165405e-01 -6.264183204621076584e-03 4.047412425279617310e-02 1.542118005454540253e-02 1.716648344881832600e-03 -1.346180140972137451e-01 -1.826153099536895752e-01 -5.615663155913352966e-02 1.598098129034042358e-01 -1.171369478106498718e-01
1.306611597537994385e-01 -1.590962260961532593e-01 -5.456116423010826111e-02 -1.766880042850971222e-02 -1.380293518304824829e-01 -2.016511708498001099e-01 8.155252039432525635e-02 8.135174959897994995e-02 -1.784691810607910156e-01 8.698566257953643799e-02 1.198104321956634521e-01 1.184923276305198669e-01 1.855555921792984009e-01 -9.589452296495437622e-03 -1.344506442546844482e-01 -3.174994140863418579e-02 1.605724096298217773e-01 1.763494014739990234e-01 1.552120298147201538e-01 1.343717426061630249e-02 -5.695256590843200684e-02 3.059721365571022034e-02 -5.340050905942916870e-02 3.086652979254722595e-02 1.133306138217449188e-02 -1.490553766489028931e-01 9.432031959295272827e-02 1.493436004966497421e-02 2.570614032447338104e-02 1.677525192499160767e-01 1.302613504230976105e-02 1.191615462303161621e-01 -1.439421921968460083e-01 8.176370710134506226e-02 -6.425895541906356812e-02 1.893940269947052002e-01 -2.674673870205879211e-02 -1.631215959787368774e-01 -1.573129445314407349e-01 4.331809282302856445e-02 -1.748364716768264771e-01 -1.418590247631072998e-01 1.618687361478805542e-01 1.786254346370697021e-01 7.184687256813049316e-02 1.106180399656295776e-01 -1.624915599822998047e-01 1.405943930149078369e-01 2.781589888036251068e-02 1.932440847158432007e-01 1.394976824522018433e-01 -6.890996545553207397e-02 1.540721654891967773e-01 -1.045047417283058167e-01 -1.511216610670089722e-01 -1.057159528136253357e-01 1.017690077424049377e-01 -8.089878410100936890e-02 -5.476120859384536743e-02 -2.311998605728149414e-02 -1.281841099262237549e-01 -7.530388981103897095e-02 6.177765876054763794e-02 1.079033836722373962e-01 -4.584368318319320679e-02 -1.514758449047803879e-02 -8.755677193403244019e-02 -1.575482487678527832e-01 -1.199229434132575989e-01 1.542960256338119507e-01 1.056991443037986755e-01 6.282753497362136841e-02 6.409218907356262207e-02 -6.856092810630798340e-02 -6.903663277626037598e-02 -1.372375786304473877e-01 -1.421476304531097412e-01 -6.544300913810729980e-02 -4.895270988345146179e-02 -1.014584377408027649e-01 6.571310013532638550e-02 -1.464820653200149536e-01 -1.129106581211090088e-01 -2.131257802248001099e-01
-8.638846129179000854e-02 1.082843914628028870e-02 -1.492700874805450439e-01 -8.884371072053909302e-02 -1.553250253200531006e-01 1.113330647349357605e-01 -3.469608351588249207e-02 3.262666612863540649e-02 -1.514044404029846191e-01 -1.008579656481742859e-01 9.205614775419235229e-02 1.833026558160781860e-01 -2.649746276438236237e-02 4.039819911122322083e-02 -1.059944108128547668e-01 -1.355182528495788574e-01 -9.887065738439559937e-03 -6.217125430703163147e-02 -6.604815274477005005e-02 1.517963260412216187e-01 1.432966589927673340e-01 1.162066385149955750e-01 -6.575519591569900513e-02 2.376650646328926086e-02 -1.236005201935768127e-01 1.137588843703269958e-01 4.990194737911224365e-02 3.767989575862884521e-02 3.317843377590179443e-02 8.270806819200515747e-02 -1.085820719599723816e-01 -7.801046222448348999e-02 1.205115020275115967e-01 5.454566702246665955e-02 -1.242534071207046509e-01 -4.987002536654472351e-02 2.721973881125450134e-02 1.227197125554084778e-01 1.673850268125534058e-01 -3.720944374799728394e-02 -1.461376398801803589e-01 4.935418814420700073e-02 -1.713917851448059082e-01 -7.144195027649402618e-03 -7.195437699556350708e-02 7.786382734775543213e-02 -1.464411150664091110e-02 1.588530838489532471e-01 -1.450368762016296387e-01 -1.523699704557657242e-02 -1.059100925922393799e-01 -2.396679297089576721e-02 -3.261994104832410812e-03 5.712684616446495056e-02 5.653145909309387207e-02 -8.408443629741668701e-02 -1.272978484630584717e-01 1.251687388867139816e-02 -1.691038310527801514e-01 1.242767423391342163e-01 1.145941317081451416e-01 -1.309504508972167969e-01 -1.116608008742332458e-01 -1.050285398960113525e-01 -8.949826471507549286e-03 1.248449236154556274e-01 -2.212587557733058929e-02 3.238145262002944946e-02 -6.539268791675567627e-02 -1.067189946770668030e-01 -1.081099659204483032e-01 -1.033038869500160217e-01 2.619172446429729462e-02 -1.749196797609329224e-01 -1.724469959735870361e-01 -4.739880096167325974e-03 -3.935819119215011597e-02 -4.962795972824096680e-02 -3.915510699152946472e-02 4.578373581171035767e-02 4.403576999902725220e-02 -9.421985596418380737e-02 -1.274282932281494141e-01 -4.373515769839286804e-02
-4.752704501152038574e-02 -2.014955878257751465e-01 1.483333259820938110e-01 1.149097010493278503e-01 -1.591536253690719604e-01 1.988104432821273804e-01 -4.851186648011207581e-03 -1.097578369081020355e-02 1.519628614187240601e-01 1.596897840499877930e-01 -6.752575933933258057e-02 2.122781574726104736e-01 -1.107707619667053223e-01 -8.090453594923019409e-02 6.235367059707641602e-02 -1.179046407341957092e-01 7.577783614397048950e-02 -6.852858513593673706e-02 -2.333637140691280365e-02 -8.334103226661682129e-02 1.473239660263061523e-01 -1.093634683638811111e-02 3.740443661808967590e-02 -2.329918555915355682e-02 1.423382312059402466e-01 9.803699702024459839e-02 -2.542222104966640472e-02 1.429344713687896729e-01 8.166711777448654175e-02 4.985323548316955566e-02 -2.795988507568836212e-02 1.147822756320238113e-02 -1.246690377593040466e-01 1.075882837176322937e-01 1.357947885990142822e-01 -2.009310424327850342e-01 7.709364593029022217e-02 -1.672867834568023682e-01 2.702645026147365570e-02 9.893687814474105835e-02 8.011721819639205933e-02 6.944464147090911865e-02 1.275728344917297363e-01 -1.498275101184844971e-01 -5.640420131385326385e-03 -1.434524655342102051e-01 1.613838523626327515e-01 -1.018916815519332886e-01 -5.621828138828277588e-02 7.090272009372711182e-02 -2.871759422123432159e-02 -2.317306585609912872e-02 1.265050023794174194e-01 1.152868866920471191e-01 6.434693001210689545e-03 1.123733520507812500e-01 -2.978533878922462463e-02 -1.179631128907203674e-01 7.258896529674530029e-02 1.100141555070877075e-01 -8.404643088579177856e-02 2.435092115774750710e-03 -1.502954512834548950e-01 6.163481995463371277e-02 9.737092256546020508e-02 8.376672863960266113e-02 -7.418850064277648926e-02 -1.470414642244577408e-02 3.030288405716419220e-02 -3.625624626874923706e-02 -1.840586364269256592e-01 -1.524988859891891479e-01 -6.864610314369201660e-02 4.294848442077636719e-02 3.089421615004539490e-02 2.176048606634140015e-01 -1.345276087522506714e-01 -4.203925654292106628e-02 1.178261190652847290e-01 7.615273445844650269e-02 -4.661200568079948425e-02 8.817820996046066284e-02 1.652081906795501709e-01 1.608873456716537476e-01
-9.409010410308837891e-02 3.119645267724990845e-02 -2.135154157876968384e-01 -1.547161769121885300e-02 1.747087538242340088e-01 7.095243781805038452e-02 -8.641833811998367310e-02 4.905071482062339783e-02 5.767634883522987366e-02 -1.558495499193668365e-02 1.957972645759582520e-01 -1.657491773366928101e-01 -4.087468981742858887e-02 1.223610639572143555e-01 1.824752837419509888e-01 5.126613005995750427e-02 1.007016524672508240e-01 9.028367698192596436e-02 9.905304014682769775e-02 -1.448888182640075684e-01 -1.414079070091247559e-01 1.884688995778560638e-02 1.441020220518112183e-01 1.414150148630142212e-01 -1.231265813112258911e-01 -7.109613716602325439e-02 4.720234777778387070e-03 -3.528774157166481018e-02 1.601686030626296997e-01 6.491237320005893707e-03 8.858469873666763306e-02 -1.051281169056892395e-01 -8.315492421388626099e-02 8.902083337306976318e-02 2.158895432949066162e-01 2.784762904047966003e-02 -1.326076686382293701e-01 1.819144561886787415e-02 -1.918700784444808960e-01 -3.109600767493247986e-02 5.637788772583007812e-02 8.708305656909942627e-02 3.210758417844772339e-02 1.910938322544097900e-02 5.186357721686363220e-02 -5.208304151892662048e-02 1.325121521949768066e-01 1.616884022951126099e-01 1.015924140810966492e-01 -1.661310791969299316e-01 1.755446195602416992e-01 -5.589419230818748474e-02 1.717891730368137360e-02 1.685486733913421631e-01 -7.886476814746856689e-02 1.267509311437606812e-01 -1.891600340604782104e-01 -1.540567576885223389e-01 2.025129050016403198e-01 8.260043250629678369e-05 -1.833956092596054077e-01 -1.567371040582656860e-01 3.520411998033523560e-02 -9.143148362636566162e-02 1.356289088726043701e-01 1.373868286609649658e-01 -3.973975835833698511e-04 1.701026707887649536e-01 4.631352052092552185e-02 8.118197321891784668e-03 -4.835600033402442932e-02 -8.380757272243499756e-02 1.180854737758636475e-01 1.610992550849914551e-01 5.942550301551818848e-02 3.401323035359382629e-02 8.097647130489349365e-02 1.409966796636581421e-01 -5.378518998622894287e-02 -8.809366077184677124e-02 -2.511621266603469849e-02 3.005438484251499176e-02 2.007890790700912476e-01 -7.693658024072647095e-02
2.571694739162921906e-02 -2.101509571075439453e-01 -1.967077851295471191e-01 -2.771889790892601013e-02 -1.085718199610710144e-01 1.232902854681015015e-01 -3.994796797633171082e-02 1.333815902471542358e-01 -8.160065859556198120e-02 9.398588538169860840e-02 -4.088990762829780579e-02 1.041906848549842834e-01 -9.561153128743171692e-03 -1.391112804412841797e-01 5.861602257937192917e-03 1.048464700579643250e-01 2.835712768137454987e-02 -2.066480368375778198e-02 1.667499393224716187e-01 5.193687602877616882e-02 -5.215617641806602478e-02 -4.781913757324218750e-02 -1.236661151051521301e-01 -1.387785822153091431e-01 -2.327721267938613892e-01 5.391906201839447021e-02 5.808232352137565613e-02 -5.163449048995971680e-02 7.324833422899246216e-02 -1.435264796018600464e-01 -8.856160938739776611e-02 -6.491319090127944946e-02 -1.790616363286972046e-01 8.417240530252456665e-02 -7.724422961473464966e-02 1.832129806280136108e-01 -1.650848388671875000e-01 1.862350404262542725e-01 -4.396995157003402710e-02 -1.009798329323530197e-02 -1.375427246093750000e-01 6.544278562068939209e-02 -1.732055656611919403e-02 2.197886258363723755e-02 -3.251935169100761414e-02 1.699393540620803833e-01 -1.159000843763351440e-01 8.893986046314239502e-02 1.144007779657840729e-02 -1.667169667780399323e-02 5.126857198774814606e-03 1.695254892110824585e-01 -6.281526386737823486e-02 -7.114962488412857056e-02 -7.875497639179229736e-02 -2.558739855885505676e-02 -1.726162135601043701e-01 -2.597429417073726654e-02 1.851494461297988892e-01 2.725625783205032349e-02 8.776575326919555664e-02 -6.788942217826843262e-02 -7.483019679784774780e-02 1.045489907264709473e-01 1.652081459760665894e-01 1.744436323642730713e-01 -1.733199059963226318e-01 -1.173389330506324768e-01 -1.411962658166885376e-01 1.774861067533493042e-01 6.113992631435394287e-02 2.360224258154630661e-03 7.383675873279571533e-02 -7.243014872074127197e-02 -1.978244781494140625e-01 7.639361172914505005e-02 1.819692254066467285e-01 1.387556344270706177e-01 1.139279305934906006e-01 1.456575691699981689e-01 8.692760951817035675e-03 -1.462666094303131104e-01 5.694217514246702194e-03 -1.926099658012390137e-01
-1.642351001501083374e-01 -1.009964272379875183e-01 -5.361000075936317444e-02 1.378920227289199829e-01 -9.370706230401992798e-02 -5.593117326498031616e-02 1.310223340988159180e-01 -1.480380743741989136e-01 -3.914941102266311646e-03 5.830177664756774902e-02 1.383163183927536011e-01 -5.278005078434944153e-02 -1.001826524734497070e-01 5.267877131700515747e-02 1.790153235197067261e-01 -1.094684004783630371e-01 -5.834029521793127060e-03 -2.720692381262779236e-02 -1.378778666257858276e-01 1.586566716432571411e-01 1.357309073209762573e-01 1.157008484005928040e-01 1.373794376850128174e-01 -6.432093679904937744e-02 5.885056406259536743e-02 -8.951143361628055573e-03 1.350889652967453003e-01 1.409829109907150269e-01 3.141303360462188721e-02 7.720002532005310059e-02 1.586171388626098633e-01 1.385254710912704468e-01 1.006612479686737061e-01 -3.345087543129920959e-02 -7.314993441104888916e-02 7.313502579927444458e-02 -1.069946363568305969e-01 2.151816710829734802e-02 -7.860430330038070679e-02 1.218489259481430054e-01 4.093838110566139221e-02 1.616322100162506104e-01 1.956891864538192749e-01 -6.290722638368606567e-02 4.534852504730224609e-02 1.220710277557373047e-01 -6.340590864419937134e-02 3.702952712774276733e-02 1.427175849676132202e-01 -1.033233031630516052e-01 -2.369719371199607849e-02 1.309323310852050781e-01 2.646081149578094482e-02 1.417672932147979736e-01 -1.674893945455551147e-01 1.998363435268402100e-01 -1.076419949531555176e-01 -1.410002559423446655e-01 -9.035421907901763916e-02 5.235999450087547302e-02 -1.184837445616722107e-01 -1.061780527234077454e-01 -6.865137815475463867e-02 4.966568574309349060e-02 1.470705121755599976e-01 1.261357963085174561e-01 1.538233608007431030e-01 -1.393412649631500244e-01 -1.448861211538314819e-01 -1.684084236621856689e-01 -1.340356022119522095e-01 1.409022659063339233e-01 3.589407727122306824e-02 -1.281701624393463135e-01 1.884312629699707031e-01 7.375511527061462402e-02 -3.161760047078132629e-02 -3.540138527750968933e-02 1.277625560760498047e-01 1.481433585286140442e-02 1.758134067058563232e-01 3.419162333011627197e-02 -1.637797616422176361e-02 6.087452918291091919e-02
-8.401869237422943115e-02 -9.503308683633804321e-02 1.354928780347108841e-02 -7.205213606357574463e-02 6.795196980237960815e-02 -9.078556299209594727e-02 7.460238784551620483e-02 1.126101091504096985e-01 -7.043938385322690010e-04 4.066946730017662048e-02 -6.750599294900894165e-02 -1.908495277166366577e-01 -1.202877461910247803e-01 -3.446296975016593933e-02 -1.441880017518997192e-01 6.186809390783309937e-02 -9.317249990999698639e-03 1.573536172509193420e-02 5.696354806423187256e-02 -1.836728602647781372e-01 3.162796795368194580e-02 -1.172180920839309692e-01 3.708138689398765564e-02 -1.592783331871032715e-01 -1.500982344150543213e-01 -1.237646341323852539e-01 -1.945716142654418945e-02 1.703288592398166656e-02 1.998139619827270508e-01 7.329227030277252197e-02 1.271348595619201660e-01 -1.599320955574512482e-02 1.815502792596817017e-01 1.823987811803817749e-02 5.991337448358535767e-02 -6.299440562725067139e-02 -1.469469517469406128e-01 1.313865482807159424e-01 -9.294163435697555542e-02 -6.245877011679112911e-05 8.562051504850387573e-02 -1.221208423376083374e-01 7.941195368766784668e-02 -1.083697304129600525e-01 -8.953760564327239990e-02 4.272889345884323120e-02 9.668286889791488647e-02 -9.444351494312286377e-02 1.979870200157165527e-01 -1.113899052143096924e-01 1.118612289428710938e-01 1.057796105742454529e-01 3.300156211480498314e-03 8.790687471628189087e-02 -1.318957358598709106e-01 -9.822910279035568237e-02 -4.435335844755172729e-02 1.319203376770019531e-01 1.136360839009284973e-01 9.675166755914688110e-02 6.534451246261596680e-02 -4.541234672069549561e-02 -1.428137272596359253e-01 -1.509843580424785614e-02 8.149769157171249390e-02 4.787919670343399048e-02 -5.101866275072097778e-02 4.801315255463123322e-03 -1.144039779901504517e-01 -6.047309190034866333e-02 1.288639754056930542e-01 -1.857418715953826904e-01 -1.605467200279235840e-01 -6.248060241341590881e-02 1.541082710027694702e-01 -1.138840392231941223e-01 -5.859334766864776611e-02 -1.556031107902526855e-01 -1.616655141115188599e-01 1.128885298967361450e-01 -1.312648653984069824e-01 -1.831797696650028229e-02 1.387994289398193359e-01 1.259130835533142090e-01
1.394887268543243408e-01 -9.502193331718444824e-02 2.948300167918205261e-02 8.025345951318740845e-02 -4.472490772604942322e-02 -5.569671466946601868e-02 -1.132406741380691528e-01 -4.706305265426635742e-02 -5.135845392942428589e-02 1.663528382778167725e-02 -7.833264768123626709e-02 1.520588845014572144e-01 3.988132625818252563e-02 9.758961945772171021e-02 -1.426476985216140747e-02 -3.673094883561134338e-02 -1.230833306908607483e-01 -6.587584316730499268e-02 -4.397454485297203064e-02 -1.020511686801910400e-01 -5.185919255018234253e-02 1.335722506046295166e-01 -9.059806168079376221e-02 1.297038942575454712e-01 -4.376653954386711121e-02 -1.442452669143676758e-01 -1.131325215101242065e-01 -1.270088404417037964e-01 -7.791331410408020020e-02 -7.231764495372772217e-02 1.408911943435668945e-01 -7.695670425891876221e-02 1.041296571493148804e-01 -1.117252465337514877e-02 4.465850070118904114e-02 -4.024751856923103333e-02 -6.170029565691947937e-02 -2.894170768558979034e-02 7.535834610462188721e-02 6.982105225324630737e-02 1.195664051920175552e-02 8.584047108888626099e-02 1.655582934617996216e-01 -1.182859390974044800e-01 8.633774705231189728e-04 1.491916179656982422e-01 8.164253085851669312e-02 -1.453285813331604004e-01 8.495449274778366089e-02 -6.208492442965507507e-02 -1.561756152659654617e-02 5.210751667618751526e-02 -6.328744441270828247e-02 2.035556733608245850e-02 2.813363447785377502e-02 -1.335445493459701538e-01 7.732363790273666382e-02 9.268894046545028687e-02 1.115724164992570877e-02 1.082414984703063965e-01 -8.448054641485214233e-02 -1.388435810804367065e-01 -1.773010194301605225e-01 -1.353190541267395020e-01 1.091906875371932983e-01 -9.090590476989746094e-02 5.977832525968551636e-02 -5.728399008512496948e-02 1.289198547601699829e-01 -6.656543165445327759e-02 1.376468501985073090e-02 -1.993513479828834534e-02 1.338075250387191772e-01 -1.278060823678970337e-01 -1.057650242000818253e-02 1.613474190235137939e-01 -1.471858769655227661e-01 -3.569041937589645386e-02 1.344553083181381226e-01 4.815133661031723022e-02 1.066529825329780579e-01 1.321268975734710693e-01 1.712458766996860504e-02 -6.743236444890499115e-03
-1.136699244379997253e-01 -1.280034705996513367e-02 1.869222372770309448e-01 -1.565022915601730347e-01 -1.109059825539588928e-01 1.581250578165054321e-01 -1.536811739206314087e-01 -3.304818272590637207e-02 3.479522839188575745e-02 -1.970712095499038696e-01 -1.029245089739561081e-02 -1.488783955574035645e-01 6.487392634153366089e-02 3.535229340195655823e-02 -1.520007103681564331e-01 -1.633608788251876831e-01 -1.860202550888061523e-01 1.574872136116027832e-01 -1.389086693525314331e-01 7.218023389577865601e-02 1.220039352774620056e-01 2.560558542609214783e-02 -2.836114494130015373e-03 4.413622245192527771e-02 1.218065470457077026e-01 -1.764497905969619751e-01 1.370860785245895386e-01 1.310937106609344482e-01 -6.527534127235412598e-02 -2.859350852668285370e-02 7.300207763910293579e-02 -1.542124450206756592e-01 1.264529973268508911e-01 -1.515514403581619263e-01 5.927546322345733643e-02 1.885722274892032146e-03 -1.211139708757400513e-01 1.355257034301757812e-01 1.595361232757568359e-01 -1.364876627922058105e-01 -1.229197233915328979e-01 1.086520147509872913e-03 -1.624719202518463135e-01 5.497444421052932739e-02 -7.359901815652847290e-02 1.219310760498046875e-01 -8.991207182407379150e-02 3.130095545202493668e-03 -9.657534211874008179e-02 2.173773199319839478e-02 1.194456070661544800e-01 5.605087056756019592e-02 1.699792742729187012e-01 -8.379428088665008545e-02 -1.671994477510452271e-01 -6.126816850155591965e-03 1.786992847919464111e-01 8.184610307216644287e-02 4.492551460862159729e-02 9.977813065052032471e-02 7.100303471088409424e-02 1.718556582927703857e-01 1.350505203008651733e-01 -1.655388921499252319e-01 -2.532331645488739014e-02 -2.535962127149105072e-02 -7.816833257675170898e-02 9.078511595726013184e-02 -8.449809253215789795e-02 -1.326404064893722534e-01 -5.240208283066749573e-02 -1.455569714307785034e-01 -9.571446478366851807e-02 -7.704484462738037109e-02 -1.937344223260879517e-01 -3.584850206971168518e-02 -5.026224628090858459e-02 -1.313163787126541138e-01 3.171118721365928650e-02 1.469099335372447968e-02 1.595546454191207886e-01 2.405189163982868195e-02 1.418212503194808960e-01 1.453898251056671143e-01
2.583505399525165558e-02 -1.744645386934280396e-01 2.284462004899978638e-02 -6.710275541990995407e-03 1.716984063386917114e-01 1.344474554061889648e-01 -1.144565716385841370e-01 9.219464659690856934e-02 -1.101970002055168152e-01 1.680429726839065552e-01 1.094402447342872620e-01 -5.246628425084054470e-04 7.352139800786972046e-02 -5.328355822712182999e-03 1.213688999414443970e-01 1.305723041296005249e-01 -1.876879185438156128e-01 -9.154269099235534668e-02 4.821864515542984009e-02 4.500238597393035889e-02 8.903637528419494629e-02 -1.591645181179046631e-01 -3.849267214536666870e-02 9.396669268608093262e-02 -1.540928483009338379e-01 -1.762472651898860931e-02 1.684481948614120483e-01 -4.758706316351890564e-02 -8.744230866432189941e-02 4.371305927634239197e-02 5.751301720738410950e-02 4.452446848154067993e-02 5.452707782387733459e-02 -1.457973271608352661e-01 1.133805364370346069e-01 8.722996711730957031e-02 -7.846909761428833008e-02 -3.480270132422447205e-02 1.503315716981887817e-01 -9.168751537799835205e-02 -1.298369467258453369e-01 -1.104685440659523010e-01 -7.476117461919784546e-02 -1.249543502926826477e-01 -6.904929131269454956e-02 -1.170110553503036499e-01 3.535185009241104126e-02 -5.034945206716656685e-04 1.756840385496616364e-02 -1.626732796430587769e-01 3.411471843719482422e-02 2.104779891669750214e-02 -9.675447642803192139e-02 -1.550228595733642578e-01 -6.052152812480926514e-02 1.501249819993972778e-01 -1.001334190368652344e-01 -5.920727178454399109e-02 1.861832290887832642e-01 -1.555060744285583496e-01 8.987826853990554810e-02 -1.556528508663177490e-01 -8.539246767759323120e-02 6.763679534196853638e-02 -1.035315468907356262e-01 7.824506610631942749e-03 1.456363797187805176e-01 -1.627787351608276367e-01 9.309258311986923218e-02 -4.740276560187339783e-02 -4.653691127896308899e-02 1.189571991562843323e-01 -1.050696447491645813e-01 -7.446885854005813599e-02 -1.417391300201416016e-01 -6.361586600542068481e-02 -1.210760418325662613e-02 1.096178684383630753e-02 -6.502807140350341797e-02 7.602735608816146851e-02 -1.371186822652816772e-01 -5.795880220830440521e-03 7.506114244461059570e-02 1.902198046445846558e-01
-8.238448202610015869e-02 -1.467831730842590332e-01 1.522654294967651367e-01 9.992970526218414307e-02 -1.140615940093994141e-01 -6.565950810909271240e-02 -1.225847527384757996e-01 2.263676747679710388e-02 1.183399781584739685e-01 1.452851146459579468e-01 -1.099982485175132751e-01 -3.330167010426521301e-02 -7.425812631845474243e-02 -9.749583899974822998e-03 4.619116336107254028e-02 5.344288796186447144e-02 1.598830670118331909e-01 -1.077800616621971130e-01 8.615145087242126465e-02 -9.615106880664825439e-02 -5.442931875586509705e-02 -9.169239550828933716e-03 1.685627102851867676e-01 -5.268918722867965698e-02 -5.208636820316314697e-02 1.508070528507232666e-01 1.683535724878311157e-01 -1.408723443746566772e-01 1.298608332872390747e-01 1.422367841005325317e-01 -9.155132621526718140e-02 1.547323316335678101e-01 -1.604615598917007446e-01 1.054922342300415039e-01 -1.815137863159179688e-01 -1.626811027526855469e-01 -1.250145137310028076e-01 -1.004951521754264832e-01 -9.924543648958206177e-02 -8.553722500801086426e-02 1.926394104957580566e-01 7.514754682779312134e-02 1.344281136989593506e-01 5.454866215586662292e-02 3.990801423788070679e-02 1.385545879602432251e-01 7.838093489408493042e-02 4.294051602482795715e-02 1.216951236128807068e-01 -3.865633532404899597e-02 -5.103481560945510864e-02 5.074826627969741821e-02 2.391300350427627563e-02 -1.246047466993331909e-01 1.418896317481994629e-01 -1.486324518918991089e-01 5.117285251617431641e-02 1.652072966098785400e-01 9.809745103120803833e-02 1.370475906878709793e-02 1.318157184869050980e-02 -5.684441700577735901e-02 -7.788202166557312012e-02 8.085970580577850342e-02 -1.246580109000205994e-01 8.396439254283905029e-02 5.505085736513137817e-02 -6.469871848821640015e-02 1.300125569105148315e-01 -1.002201363444328308e-01 -7.678895443677902222e-02 5.622824653983116150e-03 3.060773946344852448e-02 -9.987519681453704834e-02 -2.770822681486606598e-02 4.686509445309638977e-02 -1.551108062267303467e-01 -4.019276797771453857e-02 -6.167807802557945251e-02 -9.851937741041183472e-02 -7.566908746957778931e-02 6.540930829942226410e-03 -4.699485376477241516e-02 -1.673507243394851685e-01
-1.896823793649673462e-01 -1.464232355356216431e-01 8.540586382150650024e-02 2.428734302520751953e-02 -2.830883488059043884e-02 2.496684901416301727e-02 1.043814420700073242e-01 -1.310026496648788452e-01 -1.287218481302261353e-01 1.513030529022216797e-01 3.992196545004844666e-02 7.242757081985473633e-02 1.395687609910964966e-01 -1.497208476066589355e-01 6.958450376987457275e-02 -2.499477937817573547e-02 -1.213601827621459961e-01 -1.690330356359481812e-01 -1.400349140167236328e-01 1.802733242511749268e-01 -1.685744673013687134e-01 3.604708239436149597e-02 1.495986580848693848e-01 1.839562654495239258e-01 1.327568739652633667e-01 -1.269098520278930664e-01 1.831042766571044922e-01 -8.445572853088378906e-02 1.489215344190597534e-01 1.287488043308258057e-01 6.406550854444503784e-02 -1.375441551208496094e-01 -1.210156008601188660e-01 -1.834101676940917969e-01 -1.479139178991317749e-01 5.040569230914115906e-02 9.918300807476043701e-02 7.480414211750030518e-02 1.101162731647491455e-01 -1.061608344316482544e-01 1.760783344507217407e-01 7.817929983139038086e-02 1.892347484827041626e-01 -2.663977444171905518e-02 3.833138570189476013e-02 -8.172345161437988281e-02 1.047843098640441895e-01 -1.411075592041015625e-01 4.705789964646100998e-03 9.935139119625091553e-02 -9.748250991106033325e-02 2.652738243341445923e-02 -3.237288072705268860e-02 9.189343452453613281e-02 -5.652501806616783142e-02 -1.704576425254344940e-03 2.729913964867591858e-02 -1.848809421062469482e-02 -3.963001817464828491e-02 -1.217651665210723877e-01 1.686062291264533997e-02 -6.036978587508201599e-02 8.800104260444641113e-02 7.304030656814575195e-02 -1.494807898998260498e-01 -5.439535249024629593e-03 1.461011767387390137e-01 -8.907408267259597778e-02 2.648818679153919220e-02 1.057397946715354919e-01 -1.757086515426635742e-01 1.030477043241262436e-02 3.120097331702709198e-02 1.455586701631546021e-01 -1.000650823116302490e-01 9.636460244655609131e-02 6.296297162771224976e-02 9.348092228174209595e-02 -3.182081505656242371e-02 -1.351785361766815186e-01 2.092880755662918091e-02 -4.846571758389472961e-02 -2.081600949168205261e-02 1.085975393652915955e-01
-1.472194641828536987e-01 -8.424871414899826050e-02 1.226084977388381958e-01 1.590455770492553711e-01 1.515909433364868164e-01 3.448132798075675964e-02 9.864741563796997070e-02 5.456408485770225525e-02 1.816825121641159058e-01 6.369379162788391113e-02 -1.426159441471099854e-01 -1.320151686668395996e-01 -9.126859717071056366e-03 1.090156510472297668e-01 -1.272539198398590088e-01 1.560717523097991943e-01 1.267942488193511963e-01 -1.637686640024185181e-01 -1.647223085165023804e-01 -1.189988255500793457e-01 -1.167522668838500977e-01 5.357072502374649048e-02 4.992519319057464600e-02 9.522150456905364990e-02 -2.487780991941690445e-03 -1.275148987770080566e-01 3.816345706582069397e-02 -1.484106779098510742e-01 -3.969681635499000549e-02 1.844450086355209351e-02 -7.716312259435653687e-02 -5.635960958898067474e-03 2.327484823763370514e-02 6.674183905124664307e-02 -9.427636978216469288e-04 -8.601205796003341675e-02 7.408630102872848511e-02 -8.419405668973922729e-02 1.147165428847074509e-02 1.590093821287155151e-01 -1.568491905927658081e-01 2.506027556955814362e-02 1.086728721857070923e-01 9.549089521169662476e-02 -1.032350026071071625e-02 -6.885337829589843750e-02 2.925858274102210999e-02 1.036344021558761597e-01 4.392917826771736145e-02 8.228837512433528900e-03 -1.055124104022979736e-01 -5.749095976352691650e-02 4.812786728143692017e-02 -1.005743145942687988e-01 2.666896022856235504e-02 2.158851176500320435e-02 1.169968396425247192e-01 1.199322566390037537e-01 1.266922950744628906e-01 3.078482486307621002e-02 -8.094566315412521362e-02 1.312972279265522957e-03 1.565311253070831299e-01 -1.770433411002159119e-02 -2.769588120281696320e-02 -1.251985318958759308e-02 1.553243398666381836e-01 9.689264744520187378e-02 6.982445716857910156e-02 -1.553399115800857544e-01 -1.258501559495925903e-01 1.384660508483648300e-02 1.380690336227416992e-01 1.023500040173530579e-01 -8.697828650474548340e-02 1.209963187575340271e-01 -9.532812982797622681e-02 1.289521902799606323e-01 -1.213270202279090881e-01 1.258127689361572266e-01 2.136602438986301422e-02 4.301859438419342041e-02 1.794526576995849609e-01 -1.536746472120285034e-01
7.970141619443893433e-02 -2.354795299470424652e-02 -1.314433962106704712e-01 -5.555037036538124084e-02 -1.742456853389739990e-02 1.695719361305236816e-01 -1.790862679481506348e-01 -2.707106992602348328e-02 1.389798074960708618e-01 -4.262363538146018982e-02 3.096067532896995544e-02 -5.854643136262893677e-02 1.465455293655395508e-01 1.238706260919570923e-01 4.192939028143882751e-02 -9.009505063295364380e-02 -8.389167487621307373e-02 1.620794981718063354e-01 -5.113293230533599854e-02 1.435719802975654602e-02 -9.574146568775177002e-02 8.632297627627849579e-03 1.561318039894104004e-01 4.869357869029045105e-02 -3.049714490771293640e-02 -1.702743917703628540e-01 6.167458370327949524e-03 -3.823685226961970329e-03 -1.505657881498336792e-01 -1.603596359491348267e-01 1.834519505500793457e-01 -6.619693594984710217e-04 -2.996091917157173157e-02 2.834275551140308380e-02 -2.076663225889205933e-01 1.175163313746452332e-01 1.186747401952743530e-01 2.756568789482116699e-02 8.659081161022186279e-02 -8.586061000823974609e-02 -1.473325341939926147e-01 6.876334547996520996e-02 -1.107577830553054810e-01 -1.017864942550659180e-01 1.286564022302627563e-01 -1.265853047370910645e-01 -1.696360409259796143e-01 6.910318881273269653e-02 1.255888044834136963e-01 -1.642792075872421265e-01 -4.842328280210494995e-02 1.591249406337738037e-01 3.562626987695693970e-02 -9.781042486429214478e-02 -1.099184229969978333e-01 -1.369098126888275146e-01 -1.434713751077651978e-01 1.103603467345237732e-01 -4.154368489980697632e-02 1.326036006212234497e-01 -9.570755809545516968e-02 -1.385929733514785767e-01 4.909692332148551941e-02 1.026438325643539429e-01 -1.057080831378698349e-02 3.171673417091369629e-02 -1.359015256166458130e-01 -4.199466481804847717e-02 -1.645669639110565186e-01 5.126326531171798706e-02 1.149444561451673508e-02 -8.166260272264480591e-02 -3.092107363045215607e-02 -1.504823565483093262e-01 -1.526162028312683105e-01 8.668472617864608765e-02 -1.026321481913328171e-02 1.853285580873489380e-01 6.576718389987945557e-02 -1.211899518966674805e-01 -1.016046404838562012e-01 1.585453450679779053e-01 -1.827179342508316040e-01 4.189513251185417175e-02
-2.675438299775123596e-02 -7.063020765781402588e-02 9.904734790325164795e-02 -6.332678347826004028e-02 -1.065266579389572144e-01 5.888266861438751221e-02 -5.839712917804718018e-02 -1.016865391284227371e-02 -2.044170349836349487e-02 1.536235660314559937e-01 -1.039439998567104340e-02 1.374658942222595215e-01 -1.509788352996110916e-02 -1.682048738002777100e-01 -1.415627449750900269e-01 -5.133910849690437317e-02 1.660211980342864990e-01 8.625852875411510468e-03 1.517567336559295654e-01 -5.834412202239036560e-02 1.908960938453674316e-01 1.747647821903228760e-01 -1.264635771512985229e-01 -1.495038568973541260e-01 -5.622016265988349915e-02 -2.946797013282775879e-02 -1.734182611107826233e-02 1.651251614093780518e-01 8.638611435890197754e-02 -6.595098227262496948e-02 -2.338716201484203339e-02 -1.585668772459030151e-01 -3.076050058007240295e-02 -1.745288968086242676e-01 3.959862887859344482e-02 7.769194990396499634e-02 -1.539608836174011230e-01 -8.437313139438629150e-02 1.551837325096130371e-01 -1.278827190399169922e-01 4.082733392715454102e-02 8.535463362932205200e-02 7.794517278671264648e-02 -1.718668192625045776e-01 -1.511715054512023926e-01 -1.532568037509918213e-01 1.058867499232292175e-01 2.826538123190402985e-02 8.177268505096435547e-02 -9.607058763504028320e-02 -9.357824921607971191e-02 -1.371123492717742920e-01 -8.787579089403152466e-02 1.175259575247764587e-01 -1.050116568803787231e-01 -5.396717786788940430e-02 -1.320083886384963989e-01 -6.186498329043388367e-02 1.504785120487213135e-01 -1.557381916791200638e-02 -1.731894612312316895e-01 -7.717149704694747925e-02 -1.203638166189193726e-01 -1.295039206743240356e-01 2.729591540992259979e-02 -7.864641374908387661e-04 7.223650813102722168e-02 -2.952240407466888428e-02 1.586887687444686890e-01 -6.427446380257606506e-03 -1.487438380718231201e-01 5.958987399935722351e-02 4.616509005427360535e-02 -2.460543066263198853e-02 -4.031776264309883118e-02 1.952982842922210693e-01 2.018839567899703979e-01 6.124553084373474121e-02 3.189065679907798767e-02 3.976184874773025513e-02 -1.407405883073806763e-01 1.303220242261886597e-01 -2.055383287370204926e-02 1.250060051679611206e-01
1.701377779245376587e-01 -1.015817895531654358e-01 -1.873401552438735962e-01 -2.987342327833175659e-02 1.591390669345855713e-01 3.733393549919128418e-02 -1.416017711162567139e-01 -5.292772874236106873e-02 -3.222827985882759094e-02 4.740661475807428360e-03 -1.533256918191909790e-01 4.727615043520927429e-02 -1.735871583223342896e-01 -1.631219871342182159e-02 5.125135183334350586e-02 1.452273130416870117e-01 3.128375858068466187e-02 1.591273397207260132e-01 9.729418903589248657e-02 1.274469308555126190e-02 -9.587133675813674927e-02 -4.088518023490905762e-02 8.465757220983505249e-02 -1.124718785285949707e-01 -2.214619964361190796e-01 -1.187726855278015137e-02 -1.246880888938903809e-01 1.193658933043479919e-01 1.041010841727256775e-01 -6.993568688631057739e-02 9.104669839143753052e-02 8.744692057371139526e-02 -1.335510760545730591e-01 6.456524878740310669e-02 8.783739060163497925e-02 9.298530220985412598e-02 3.415610408410429955e-04 9.709679335355758667e-02 -1.610572338104248047e-01 -1.000304147601127625e-01 1.114991754293441772e-01 -6.518672686070203781e-03 1.656064093112945557e-01 -9.901103377342224121e-02 1.434504240751266479e-01 -4.658791050314903259e-02 1.204895079135894775e-01 1.514653712511062622e-01 6.576940417289733887e-02 -1.744896024465560913e-01 3.239420428872108459e-02 1.175704598426818848e-01 3.195346519351005554e-02 8.609621971845626831e-02 6.653742492198944092e-02 2.120956405997276306e-02 -1.189102083444595337e-01 1.268838346004486084e-01 2.294665127992630005e-01 -1.189273521304130554e-01 -1.388254910707473755e-01 -3.022202476859092712e-02 -1.367952395230531693e-02 -1.030056253075599670e-01 7.803479582071304321e-02 5.490512028336524963e-02 1.110632568597793579e-01 1.083841733634471893e-02 1.082450989633798599e-02 -6.437531858682632446e-02 4.911572113633155823e-02 7.364873588085174561e-02 -2.919048257172107697e-02 -8.882390707731246948e-02 -5.002268031239509583e-02 1.126883104443550110e-01 1.092647463083267212e-01 -7.152870297431945801e-02 -1.787560880184173584e-01 -1.873182691633701324e-02 1.788003486581146717e-03 1.254666745662689209e-01 3.239185363054275513e-02 -7.963299006223678589e-02
4.706302657723426819e-02 -1.858857646584510803e-02 -1.490218378603458405e-02 8.735674619674682617e-02 -8.913976699113845825e-02 4.168815165758132935e-02 -8.475216478109359741e-02 1.062988638877868652e-01 1.955679059028625488e-01 1.160772591829299927e-01 -6.478583440184593201e-03 5.037970468401908875e-02 7.678155601024627686e-02 -2.078842557966709137e-02 -6.487280596047639847e-03 -7.125519961118698120e-02 -2.383648231625556946e-02 -1.441882550716400146e-01 -5.887674540281295776e-02 1.629890054464340210e-01 8.958960324525833130e-02 -1.559951156377792358e-01 1.417527049779891968e-01 7.884343713521957397e-02 -1.373866796493530273e-01 -7.275427877902984619e-02 -7.148851454257965088e-02 6.236452981829643250e-02 1.103947982192039490e-01 -6.066415517125278711e-05 4.215926676988601685e-02 -1.829403825104236603e-02 1.765682548284530640e-02 1.596381068229675293e-01 8.027266710996627808e-03 1.053259242326021194e-02 1.669906526803970337e-01 -1.120771542191505432e-01 -5.688970908522605896e-02 5.204798281192779541e-02 -7.015743106603622437e-02 -1.602753400802612305e-01 -1.341617405414581299e-01 1.125138476490974426e-01 1.926004700362682343e-02 1.223456859588623047e-01 -9.643156081438064575e-02 -1.228044629096984863e-01 -1.610904932022094727e-01 -1.449113041162490845e-01 -3.071511909365653992e-02 1.835205852985382080e-01 2.707099914550781250e-02 4.155649989843368530e-02 6.346506625413894653e-02 9.682033210992813110e-02 7.818984240293502808e-02 -1.367719471454620361e-01 -3.706458956003189087e-02 1.356312036514282227e-01 1.447720825672149658e-01 8.593384921550750732e-02 4.704595729708671570e-02 5.965008959174156189e-02 -1.229240521788597107e-01 -1.778955385088920593e-02 -7.535878568887710571e-02 8.759010583162307739e-02 1.467908322811126709e-01 -1.159491464495658875e-01 9.950921684503555298e-02 1.849036514759063721e-01 8.451110869646072388e-02 -8.813230693340301514e-02 1.892650499939918518e-02 1.761509925127029419e-01 -1.948112912941724062e-04 2.557687833905220032e-02 7.857000827789306641e-02 1.228847205638885498e-01 -9.513319283723831177e-02 3.761308267712593079e-02 2.664308622479438782e-02 2.312235347926616669e-02
-2.598947472870349884e-02 1.151005104184150696e-01 9.978856146335601807e-02 -1.331207007169723511e-01 -7.530819624662399292e-02 -7.314082235097885132e-02 -1.368742585182189941e-01 8.650586754083633423e-02 9.151277691125869751e-02 -1.209315881133079529e-01 8.837959915399551392e-02 1.768965572118759155e-01 1.312041133642196655e-01 -9.382396936416625977e-02 3.070725069846957922e-04 5.999159067869186401e-02 8.038882166147232056e-02 4.165672510862350464e-02 -1.640262901782989502e-01 4.507980123162269592e-02 2.765333838760852814e-02 1.003455370664596558e-01 -7.710340619087219238e-02 8.578658849000930786e-02 1.678756475448608398e-01 -4.938494414091110229e-02 1.873994246125221252e-02 6.525931507349014282e-02 -1.698931753635406494e-01 -1.036506611853837967e-02 1.016903668642044067e-01 3.557573631405830383e-02 9.625501930713653564e-02 1.590525805950164795e-01 1.349449604749679565e-01 -9.294615685939788818e-02 1.214757859706878662e-01 -1.488101929426193237e-01 -1.134008169174194336e-01 -4.470195993781089783e-02 -4.994421731680631638e-03 1.412008404731750488e-01 1.571705639362335205e-01 -1.018916517496109009e-01 -8.516308665275573730e-02 2.827345579862594604e-02 -1.707107410766184330e-03 6.169515103101730347e-02 -8.494373410940170288e-02 -1.218566745519638062e-01 -2.166573703289031982e-02 1.760570704936981201e-01 4.841423034667968750e-02 -8.791492134332656860e-02 5.493624135851860046e-02 -1.033407077193260193e-01 -1.134797036647796631e-01 1.551168709993362427e-01 -2.737498143687844276e-04 5.354350805282592773e-02 7.614240050315856934e-02 -6.814305484294891357e-02 -7.939305901527404785e-02 -7.753890007734298706e-02 -1.450982987880706787e-01 -1.724404841661453247e-02 -3.214784897863864899e-03 -1.143525093793869019e-01 1.343519389629364014e-01 -1.686435341835021973e-01 1.364757567644119263e-01 1.439742743968963623e-01 -1.658030599355697632e-01 -1.665151715278625488e-01 1.655214726924896240e-01 -2.696439251303672791e-02 2.245466597378253937e-02 2.960482146590948105e-03 1.436588615179061890e-01 -5.194624885916709900e-02 3.643247066065669060e-03 -1.002737730741500854e-01 1.176831573247909546e-01 -7.536729425191879272e-02
9.532459080219268799e-02 -1.110223010182380676e-01 1.364492177963256836e-01 -7.885945588350296021e-02 -1.432267129421234131e-01 -1.535927206277847290e-01 -1.048715859651565552e-01 -1.554259192198514938e-02 -1.395971029996871948e-01 1.291676610708236694e-01 7.255428284406661987e-02 1.498678624629974365e-01 -8.284864574670791626e-02 1.384730637073516846e-01 1.580830067396163940e-01 -5.529327690601348877e-02 -4.056847095489501953e-02 1.452288180589675903e-01 1.880862712860107422e-01 -1.453320086002349854e-01 1.561479419469833374e-01 1.108102500438690186e-01 1.694011539220809937e-01 -5.464158207178115845e-02 4.894139990210533142e-02 -6.311240792274475098e-02 -1.665181219577789307e-01 1.744570285081863403e-01 1.765013188123703003e-01 -1.542336046695709229e-01 -1.265187263488769531e-01 5.063747614622116089e-02 1.447122991085052490e-01 -6.001624092459678650e-02 -1.313719302415847778e-01 9.162765927612781525e-03 7.633981853723526001e-02 4.687077924609184265e-02 1.509235799312591553e-01 1.795039325952529907e-01 2.904493734240531921e-02 6.899508833885192871e-02 -4.743209108710289001e-02 6.677936762571334839e-02 -8.803172409534454346e-02 1.024057939648628235e-01 3.283745422959327698e-02 -2.506688423454761505e-02 3.477129712700843811e-02 -9.893818199634552002e-02 6.138071045279502869e-02 -4.617138206958770752e-02 5.826466903090476990e-02 -5.986987426877021790e-02 4.644477367401123047e-02 1.368037462234497070e-01 -9.705442190170288086e-02 -1.177017390727996826e-01 -2.761090546846389771e-02 -1.649273931980133057e-01 4.504583030939102173e-02 7.951661944389343262e-03 -8.243870735168457031e-02 4.436273872852325439e-02 -6.270910799503326416e-02 -2.446333132684230804e-02 1.300576478242874146e-01 -5.846363678574562073e-02 -1.228180080652236938e-01 -1.591106802225112915e-01 7.802095264196395874e-02 6.749375909566879272e-02 -2.818427048623561859e-02 -1.897269934415817261e-01 -1.622613668441772461e-01 8.997467905282974243e-02 -9.898360818624496460e-02 1.035285443067550659e-01 2.531646192073822021e-02 -4.175331443548202515e-02 -1.604740023612976074e-01 1.555339097976684570e-01 -1.529559679329395294e-02 -2.126624342054128647e-03
-1.093705967068672180e-01 -2.146254107356071472e-02 -2.700971066951751709e-02 1.624993979930877686e-01 9.564268589019775391e-02 -8.627187460660934448e-02 6.346274912357330322e-02 1.048964411020278931e-01 3.408442810177803040e-02 -7.000568509101867676e-02 -1.269211173057556152e-01 -1.533925086259841919e-01 -5.818026140332221985e-02 1.481342911720275879e-01 -4.503706470131874084e-02 -1.379375010728836060e-01 -1.127457842230796814e-01 -1.860819756984710693e-02 -3.272751718759536743e-02 -8.934678137302398682e-02 5.348765477538108826e-02 1.579874306917190552e-01 6.641980260610580444e-03 7.669135928153991699e-02 1.726582646369934082e-01 -1.430938392877578735e-01 -4.321834072470664978e-02 5.923661589622497559e-02 1.453710645437240601e-01 9.150934219360351562e-02 -1.283477991819381714e-02 -8.648790419101715088e-02 -1.092308685183525085e-01 -3.190132603049278259e-02 9.288014471530914307e-02 -8.189029991626739502e-02 1.581583321094512939e-01 3.853182122111320496e-02 1.132671609520912170e-01 -1.664626747369766235e-01 2.688228525221347809e-02 4.065710306167602539e-02 -3.371811762917786837e-04 -6.207600980997085571e-02 -1.754823327064514160e-01 8.444233238697052002e-02 -8.817116171121597290e-02 -1.644359230995178223e-01 1.109723150730133057e-01 1.329334527254104614e-01 -9.265502542257308960e-02 2.502807229757308960e-02 1.221274882555007935e-01 -3.109515085816383362e-02 1.376632601022720337e-02 -1.022516116499900818e-01 -4.972473904490470886e-02 1.351507455110549927e-01 1.100539043545722961e-01 -1.433164179325103760e-01 -7.399744540452957153e-02 6.504464149475097656e-02 -9.897153824567794800e-02 -1.582748144865036011e-01 -9.352036565542221069e-02 9.629642218351364136e-02 4.412039741873741150e-02 -1.146583259105682373e-01 -4.981369897723197937e-02 1.357721239328384399e-01 -7.077382504940032959e-02 -7.067856192588806152e-02 2.652970701456069946e-02 -1.233859173953533173e-02 -1.421048492193222046e-01 1.042631715536117554e-01 -7.241196930408477783e-02 1.277677863836288452e-01 1.533052921295166016e-01 1.114159598946571350e-01 -1.531222313642501831e-01 -7.180773653090000153e-03 1.035080775618553162e-01 1.864148676395416260e-01
-4.761651903390884399e-02 -2.499298378825187683e-02 2.265816368162631989e-02 -1.050598695874214172e-01 -1.167441532015800476e-01 -6.303960084915161133e-02 3.526823595166206360e-02 1.455243676900863647e-01 -2.277961373329162598e-01 1.661074012517929077e-01 -1.153687760233879089e-01 -9.105078130960464478e-02 3.833086043596267700e-02 5.969455838203430176e-02 1.358266621828079224e-01 1.435799300670623779e-01 -1.136355027556419373e-01 1.822775602340698242e-01 -4.106787219643592834e-02 5.202158913016319275e-02 1.707596480846405029e-01 -1.250092405825853348e-02 -7.216894533485174179e-03 -1.098372880369424820e-02 1.841499283909797668e-02 -1.593537032604217529e-01 6.763310730457305908e-02 -4.172578826546669006e-02 -8.036663383245468140e-02 3.886463865637779236e-02 -6.838116794824600220e-02 1.442817747592926025e-01 3.493967652320861816e-02 1.827531009912490845e-01 1.555086970329284668e-01 3.727141069248318672e-03 -2.814843691885471344e-02 -1.745446026325225830e-02 6.657291203737258911e-02 -1.430065482854843140e-01 -1.327449232339859009e-01 7.516310364007949829e-02 1.777712441980838776e-02 1.538900732994079590e-01 -1.046271845698356628e-01 1.483324076980352402e-02 2.095403522253036499e-01 1.227633357048034668e-01 4.542309418320655823e-02 -1.656602472066879272e-01 1.868746727705001831e-01 -6.341775506734848022e-02 -6.211796030402183533e-02 -5.609527975320816040e-02 -6.450416892766952515e-02 -1.315310597419738770e-01 9.084192104637622833e-03 1.560604721307754517e-01 -7.461087405681610107e-02 -5.133813619613647461e-02 -1.526588797569274902e-01 1.445761024951934814e-01 -1.209028214216232300e-01 1.697685867547988892e-01 1.505093462765216827e-02 -1.314107626676559448e-01 5.121539905667304993e-02 -6.459317356348037720e-02 -1.061154007911682129e-01 -5.550840869545936584e-02 -1.288338303565979004e-01 1.700061187148094177e-02 -6.031691282987594604e-02 -1.014360487461090088e-01 8.270303159952163696e-02 -1.214673891663551331e-01 -4.603531584143638611e-02 -1.497978270053863525e-01 -1.716806888580322266e-01 -1.111077368259429932e-01 -6.852204352617263794e-02 -1.401107609272003174e-01 4.077203199267387390e-02 -6.303935497999191284e-02
1.200002357363700867e-01 1.858873367309570312e-01 8.577921986579895020e-02 -4.000014066696166992e-02 1.523164063692092896e-01 -1.001932919025421143e-01 -1.291265338659286499e-01 -9.109883010387420654e-02 -1.162300407886505127e-01 1.246422156691551208e-01 2.356744743883609772e-02 8.663412183523178101e-02 3.138154745101928711e-02 -1.254219561815261841e-01 -5.920489877462387085e-02 6.230680644512176514e-02 -1.446842551231384277e-01 5.362179130315780640e-02 4.469957575201988220e-02 4.603366687661036849e-05 8.113358169794082642e-02 -9.433891624212265015e-02 5.860145017504692078e-02 -2.302462793886661530e-02 -7.506128400564193726e-02 -1.836386620998382568e-01 -9.856833517551422119e-02 1.623314619064331055e-01 -1.191290616989135742e-01 -6.891013681888580322e-02 -1.512298732995986938e-01 1.736019104719161987e-01 1.778205484151840210e-01 3.317508101463317871e-02 -8.836387656629085541e-03 -1.719437539577484131e-01 7.033107429742813110e-02 -3.818820416927337646e-02 8.094725757837295532e-02 1.456676423549652100e-01 1.459280848503112793e-01 -1.759779453277587891e-01 1.841546148061752319e-01 -1.044506430625915527e-01 3.058243170380592346e-02 -4.852472990751266479e-02 1.287607848644256592e-01 -4.492399841547012329e-02 1.049092486500740051e-01 -2.440670691430568695e-02 -5.766665562987327576e-02 -1.628548838198184967e-02 -1.407826691865921021e-01 9.303854405879974365e-02 2.069044113159179688e-01 -5.528594925999641418e-02 -3.823372721672058105e-02 -1.213536858558654785e-01 7.667935639619827271e-02 -5.945144221186637878e-03 -1.603363156318664551e-01 8.495997637510299683e-02 1.183135062456130981e-02 1.396347880363464355e-01 -5.033397674560546875e-02 1.462807953357696533e-01 9.808395057916641235e-02 3.419766947627067566e-02 1.422836631536483765e-01 -1.434034407138824463e-01 3.512671962380409241e-02 -5.218056961894035339e-02 9.477581828832626343e-03 -1.596675813198089600e-01 -3.677263110876083374e-02 -1.525213420391082764e-01 -1.209410503506660461e-01 -2.033128440380096436e-01 1.063600108027458191e-01 -1.117008738219738007e-02 -6.171024404466152191e-03 -7.585469633340835571e-03 -4.424771293997764587e-02 4.443215206265449524e-02
-1.551329437643289566e-02 -1.682090759277343750e-01 6.821312854299321771e-05 -3.178175166249275208e-02 7.203592360019683838e-02 -1.442384719848632812e-01 1.499487012624740601e-01 5.219418928027153015e-02 -2.011155942454934120e-03 -1.266293972730636597e-01 -5.265316739678382874e-02 1.629150509834289551e-01 1.115147173404693604e-01 1.904305219650268555e-01 1.042262464761734009e-01 1.693405061960220337e-01 2.741003222763538361e-02 -6.031979992985725403e-02 5.190625041723251343e-02 1.326194703578948975e-01 1.070863828063011169e-01 1.029846668243408203e-01 1.465535610914230347e-01 1.196690797805786133e-01 1.043886691331863403e-02 1.690385490655899048e-01 3.302912414073944092e-02 8.088552206754684448e-02 3.365115076303482056e-02 9.586617350578308105e-02 1.615758240222930908e-01 1.878404617309570312e-02 -4.744809865951538086e-02 1.662196516990661621e-01 4.396261647343635559e-02 1.156193837523460388e-01 1.195079926401376724e-02 -2.132971026003360748e-02 -1.784826815128326416e-01 -1.870651170611381531e-02 9.011918306350708008e-02 1.112019829452037811e-02 6.888461112976074219e-02 -1.452656388282775879e-01 -3.952219337224960327e-02 -6.880198419094085693e-02 -1.138238236308097839e-01 -1.486767977476119995e-01 -1.712070554494857788e-01 5.803570896387100220e-02 -6.763160228729248047e-02 9.759242087602615356e-02 1.985422223806381226e-01 1.376696862280368805e-02 -1.295919865369796753e-01 1.499003469944000244e-01 4.885763395577669144e-03 5.255208909511566162e-02 1.188799366354942322e-01 9.303762018680572510e-02 1.391255110502243042e-01 -1.248101517558097839e-01 1.435646861791610718e-01 1.582374274730682373e-01 3.610039502382278442e-02 -5.553413555026054382e-02 -1.612226814031600952e-01 -1.336857974529266357e-01 1.011116877198219299e-01 1.638075262308120728e-01 -3.221974940970540047e-03 -1.612794846296310425e-01 1.814296245574951172e-01 6.998664140701293945e-02 -1.209651529788970947e-01 2.739389985799789429e-02 3.129565715789794922e-02 2.210529893636703491e-02 -1.656200289726257324e-01 5.934254825115203857e-02 1.557557731866836548e-01 -1.296526491641998291e-01 1.007383912801742554e-01 -4.011676460504531860e-02
-2.189160697162151337e-02 -5.491910502314567566e-02 -1.077970936894416809e-01 -1.405792236328125000e-01 -1.360193639993667603e-01 -1.124196574091911316e-01 -5.989698227494955063e-03 -2.976027876138687134e-02 1.336080431938171387e-01 7.305525243282318115e-02 1.130192652344703674e-01 -1.568056046962738037e-01 -7.054632063955068588e-03 -8.368986845016479492e-02 1.836321689188480377e-02 -2.257981151342391968e-02 -8.906108886003494263e-02 -5.840658396482467651e-02 1.398256570100784302e-01 7.317452877759933472e-02 -1.364472359418869019e-01 -1.811690032482147217e-01 6.278038769960403442e-02 9.745639562606811523e-02 -1.100168842822313309e-02 1.311172246932983398e-01 1.426024734973907471e-01 3.476157411932945251e-02 2.595850266516208649e-02 -1.314223110675811768e-01 1.456589102745056152e-01 -1.083903685212135315e-01 6.222022697329521179e-02 1.618350446224212646e-01 -6.042917724698781967e-03 4.400373622775077820e-02 -1.559446007013320923e-01 -1.509618461132049561e-01 -6.549641024321317673e-03 -7.791372481733560562e-03 -8.138593286275863647e-02 9.107766300439834595e-02 -1.235979571938514709e-01 9.116370230913162231e-02 -1.812344603240489960e-02 1.726188659667968750e-01 7.132506370544433594e-02 5.506917461752891541e-02 9.594924747943878174e-02 -4.687063023447990417e-02 -6.377590820193290710e-03 1.599559634923934937e-01 1.684738844633102417e-01 2.760517224669456482e-02 -1.068245321512222290e-01 -3.427235037088394165e-02 3.972005844116210938e-02 1.567312865518033504e-03 -1.663099229335784912e-01 1.709051728248596191e-01 -1.416828781366348267e-01 1.104971691966056824e-01 -7.355664670467376709e-02 -6.385366618633270264e-02 1.538724899291992188e-01 2.624632604420185089e-02 7.139339298009872437e-02 1.354490779340267181e-02 8.928438648581504822e-03 -4.516438767313957214e-02 1.756695844233036041e-02 1.146471966058015823e-02 -9.922257810831069946e-02 3.027440793812274933e-02 8.636869490146636963e-02 1.259935945272445679e-01 2.278288360685110092e-03 -7.670915871858596802e-02 -9.004928916692733765e-02 -1.073014736175537109e-01 -1.299421936273574829e-01 1.695606410503387451e-01 -9.195040166378021240e-02 -1.503026634454727173e-01
-1.190772950649261475e-01 1.294501591473817825e-02 -1.831663101911544800e-01 -4.082416743040084839e-02 -1.447404623031616211e-01 7.085318211466073990e-03 6.045666709542274475e-02 5.268245935440063477e-02 -1.247014701366424561e-01 -9.743802249431610107e-02 -1.233664453029632568e-01 3.832144290208816528e-02 -1.479494869709014893e-01 1.691149175167083740e-01 -2.818242833018302917e-02 -1.002910314127802849e-03 1.003734916448593140e-01 1.848213672637939453e-01 1.140078157186508179e-01 1.243414431810379028e-01 1.108760014176368713e-01 -1.352336071431636810e-02 6.338695436716079712e-02 1.188496723771095276e-01 1.335208714008331299e-01 1.768919825553894043e-02 -4.601081833243370056e-02 1.103062648326158524e-02 9.568744897842407227e-02 -5.595521628856658936e-02 1.384063810110092163e-01 -1.450541429221630096e-03 -1.527182906866073608e-01 -1.034438908100128174e-01 -7.519411295652389526e-02 5.667145922780036926e-02 -1.968373358249664307e-02 -1.391803920269012451e-01 -9.390038996934890747e-02 4.710516333580017090e-02 -1.561238151043653488e-02 -1.569555513560771942e-02 -1.519867032766342163e-01 4.367718100547790527e-02 1.354617178440093994e-01 -4.042655229568481445e-02 -5.510703846812248230e-02 -1.338374316692352295e-01 1.828772202134132385e-02 -1.479087024927139282e-01 -8.757980167865753174e-02 -1.476439535617828369e-01 -1.276519596576690674e-01 -3.347349166870117188e-02 -6.995715200901031494e-02 1.379090175032615662e-02 -6.161388009786605835e-02 -9.311384521424770355e-03 -6.871591508388519287e-02 2.569644339382648468e-02 -2.017654478549957275e-01 -8.152160048484802246e-02 -1.579738408327102661e-01 1.637990400195121765e-02 3.100538812577724457e-02 3.268173336982727051e-02 -2.862455882132053375e-02 7.470189034938812256e-02 -1.818766295909881592e-01 -1.073388084769248962e-01 3.435192257165908813e-02 1.261370480060577393e-01 1.185970678925514221e-01 -1.962612569332122803e-01 1.679104566574096680e-01 -7.643087953329086304e-02 1.801432222127914429e-01 -4.724019393324851990e-02 1.309017539024353027e-01 -7.278699427843093872e-02 -6.907503306865692139e-02 1.217942535877227783e-01 -9.882108867168426514e-02 -7.655013352632522583e-02
-1.637602597475051880e-01 -1.060281097888946533e-01 8.313883841037750244e-02 1.572032719850540161e-01 -5.920975282788276672e-02 1.040251776576042175e-01 8.496532589197158813e-02 -2.261738106608390808e-02 1.214081197977066040e-01 -1.249899491667747498e-01 2.298209257423877716e-02 -1.119895279407501221e-01 7.087500393390655518e-02 -8.597020059823989868e-02 6.018860638141632080e-02 -1.300842314958572388e-01 -9.084936231374740601e-02 4.523874446749687195e-02 -1.507551129907369614e-02 -2.490895567461848259e-03 -1.631173938512802124e-01 7.358889281749725342e-02 -2.182189077138900757e-01 1.376425102353096008e-02 1.570233404636383057e-01 8.058266341686248779e-02 1.260069161653518677e-01 -4.123201593756675720e-02 1.819086074829101562e-02 -6.463567726314067841e-03 -3.363602608442306519e-02 3.562683612108230591e-02 -1.355737745761871338e-01 -1.572119593620300293e-01 -1.161411553621292114e-01 -1.229954212903976440e-01 -2.110038883984088898e-02 -1.356622427701950073e-01 2.798793278634548187e-02 -7.615323644131422043e-03 1.162678226828575134e-01 -2.494887821376323700e-02 -1.079304516315460205e-01 4.170240089297294617e-02 -1.845667064189910889e-01 -3.193707391619682312e-02 -1.328372210264205933e-01 1.453940272331237793e-01 9.416639059782028198e-02 -9.026124328374862671e-02 -1.468242406845092773e-01 -7.206489145755767822e-02 8.109755814075469971e-03 -1.085880622267723083e-01 3.466111794114112854e-02 1.316769570112228394e-01 -5.070533603429794312e-03 9.820129722356796265e-02 -1.338055729866027832e-01 -4.049783945083618164e-02 1.545208543539047241e-01 1.665775328874588013e-01 6.161796301603317261e-02 -4.237700253725051880e-02 3.456153720617294312e-02 2.955916337668895721e-02 -1.613692045211791992e-01 1.463717371225357056e-01 -1.241402700543403625e-01 6.100102886557579041e-02 -1.039123088121414185e-01 6.978168338537216187e-02 -1.252226680517196655e-01 1.511079370975494385e-01 -3.205437958240509033e-02 8.209460228681564331e-02 8.637874573469161987e-02 1.322987079620361328e-01 3.540071845054626465e-02 8.291172981262207031e-02 -5.460835061967372894e-03 -5.533873662352561951e-02 2.053385972976684570e-02 -1.299387961626052856e-02
4.675885429605841637e-04 5.983877182006835938e-02 -2.163513936102390289e-02 1.708456873893737793e-01 2.150334417819976807e-02 1.543063297867774963e-02 1.463881433010101318e-01 1.622369140386581421e-01 -8.459890633821487427e-02 1.306641846895217896e-01 8.747028768993914127e-04 1.683978885412216187e-01 1.524250209331512451e-01 2.894782647490501404e-02 -3.822233155369758606e-02 -1.527988463640213013e-01 -1.096609458327293396e-01 8.875373005867004395e-02 -1.577776968479156494e-01 -7.101037353277206421e-02 2.526389993727207184e-02 -8.831976912915706635e-03 1.311053633689880371e-01 9.772606194019317627e-02 -1.254023462533950806e-01 -4.071090370416641235e-02 2.504004538059234619e-02 1.194192990660667419e-01 -7.562173157930374146e-02 1.700772196054458618e-01 -1.350661665201187134e-01 -1.308388113975524902e-01 4.723811149597167969e-02 8.261172473430633545e-02 -3.734626993536949158e-02 1.585905551910400391e-01 1.309605687856674194e-01 -1.694596409797668457e-01 1.427985876798629761e-01 -9.414929151535034180e-02 -1.105604320764541626e-01 1.633705645799636841e-01 -5.472025275230407715e-02 5.980935692787170410e-02 -1.654106676578521729e-01 -1.554802060127258301e-01 2.059094011783599854e-01 -1.108071804046630859e-01 4.307484999299049377e-02 1.555038541555404663e-01 8.877434581518173218e-02 5.162601917982101440e-02 -3.923992440104484558e-02 8.386798202991485596e-03 -1.200186312198638916e-01 -6.407047808170318604e-02 1.277674138545989990e-01 -3.796790540218353271e-02 -1.832228302955627441e-01 -1.470935344696044922e-01 -1.150461658835411072e-01 -6.999263912439346313e-02 -1.578219681978225708e-01 -1.486603617668151855e-01 4.706222098320722580e-03 8.336453698575496674e-03 1.911614388227462769e-01 -3.172505274415016174e-02 8.410099893808364868e-02 -1.321800500154495239e-01 -8.132667839527130127e-02 8.901114016771316528e-02 1.406455934047698975e-01 3.597356751561164856e-02 2.880712039768695831e-02 -7.874886691570281982e-02 -8.142922818660736084e-02 -7.522123865783214569e-03 -8.249363861978054047e-03 4.324274137616157532e-02 2.397622354328632355e-02 -8.141992241144180298e-02 -6.995862722396850586e-02 1.872962713241577148e-01
-1.126329079270362854e-01 -2.727400325238704681e-02 -8.535690605640411377e-02 -1.140921711921691895e-01 -1.103369295597076416e-01 -1.649250537157058716e-01 -1.213120073080062866e-01 3.957342356443405151e-02 7.166082412004470825e-02 -8.573509752750396729e-02 1.401644051074981689e-01 -9.794779121875762939e-02 2.116263061761856079e-01 6.733977049589157104e-02 -3.569254279136657715e-02 4.752336069941520691e-02 6.989756226539611816e-02 2.963059954345226288e-02 -1.853643655776977539e-01 -1.343608498573303223e-01 -1.758481562137603760e-01 -1.316800862550735474e-01 -1.716400235891342163e-01 1.182823926210403442e-01 -2.012026160955429077e-01 -1.175482198596000671e-01 1.330100893974304199e-01 -8.171591907739639282e-02 3.508486598730087280e-02 1.471328288316726685e-01 1.659567058086395264e-01 8.125193417072296143e-02 -1.690922528505325317e-01 1.154475435614585876e-01 2.674189023673534393e-02 -2.791267633438110352e-02 -5.464974418282508850e-02 -3.101789765059947968e-02 -3.706981614232063293e-02 -4.862430691719055176e-02 -1.814862042665481567e-01 -3.315258538350462914e-03 -1.045283675193786621e-01 -1.788772642612457275e-01 6.653104722499847412e-02 1.189157143235206604e-01 3.163236007094383240e-02 -1.222172528505325317e-01 9.587999433279037476e-02 3.834568336606025696e-02 -1.518223136663436890e-01 3.961241245269775391e-02 1.680024415254592896e-01 1.003674566745758057e-01 -8.060335367918014526e-02 6.032120808959007263e-02 -1.071254089474678040e-01 -1.446286439895629883e-01 -4.943038150668144226e-02 5.567964166402816772e-03 1.602801233530044556e-01 -6.784367561340332031e-02 1.326331645250320435e-01 -4.870326444506645203e-02 1.714456826448440552e-01 -1.118466854095458984e-01 1.754883378744125366e-01 2.747848443686962128e-02 9.178755432367324829e-02 -6.189664080739021301e-02 5.115249380469322205e-02 8.674319833517074585e-03 3.148254379630088806e-02 -1.639342457056045532e-01 -3.450056165456771851e-02 1.813491284847259521e-01 1.664209514856338501e-01 1.296911388635635376e-01 -1.132044009864330292e-03 1.261683553457260132e-01 6.074162945151329041e-02 -1.491182148456573486e-01 -1.039875373244285583e-01 5.151458457112312317e-02
-7.129060477018356323e-02 -1.239185556769371033e-01 1.545622050762176514e-01 -1.701599210500717163e-01 -9.764495491981506348e-02 8.444163948297500610e-02 9.068339318037033081e-02 1.592761129140853882e-01 6.614238768815994263e-02 -1.019833683967590332e-01 -1.180080920457839966e-01 -1.599750667810440063e-01 -1.927767880260944366e-02 -1.354219615459442139e-01 7.773612439632415771e-02 -1.543702632188796997e-01 3.555942326784133911e-02 -1.127787679433822632e-01 9.240509569644927979e-02 -6.562668830156326294e-02 -4.666316136717796326e-02 -1.947986520826816559e-02 1.945109665393829346e-02 4.327248036861419678e-02 -1.185363978147506714e-01 -8.923396468162536621e-02 -1.315472181886434555e-02 -6.971049122512340546e-03 -1.283955127000808716e-01 -1.444802880287170410e-01 -1.582005470991134644e-01 -1.288607716560363770e-01 1.628951728343963623e-01 -7.255081832408905029e-02 -5.278413649648427963e-03 -8.053965866565704346e-02 -1.679928600788116455e-01 -1.369521170854568481e-01 1.143556088209152222e-01 -3.928362578153610229e-02 -4.104873165488243103e-03 9.493611287325620651e-04 -1.603302313014864922e-03 -1.188362613320350647e-01 -3.335288166999816895e-02 -1.400360763072967529e-01 1.080855429172515869e-01 9.065779298543930054e-02 1.788378804922103882e-01 -1.109174937009811401e-01 -4.434718936681747437e-02 7.534231990575790405e-02 -3.739880025386810303e-02 4.304783418774604797e-02 7.595399767160415649e-02 8.373377495445311069e-04 -2.478936500847339630e-02 1.739742755889892578e-01 1.799363642930984497e-01 6.442014873027801514e-02 -1.947886943817138672e-01 1.161970123648643494e-01 -1.645152866840362549e-01 1.608514636754989624e-01 8.217649906873703003e-02 -1.252546012401580811e-01 -1.016552224755287170e-01 -4.836949333548545837e-02 1.041917782276868820e-02 -8.091070689260959625e-03 -1.091371774673461914e-01 1.131693422794342041e-01 3.988464549183845520e-02 5.136204883456230164e-02 -1.289633363485336304e-01 1.484475731849670410e-01 1.469022929668426514e-01 -1.318013072013854980e-01 -7.240633666515350342e-02 -4.221889376640319824e-02 6.778339296579360962e-02 1.190303489565849304e-01 1.965694315731525421e-02 -9.076379239559173584e-02
1.397106498479843140e-01 -2.210196107625961304e-01 1.142851188778877258e-01 3.850050270557403564e-02 1.001330912113189697e-01 3.678598254919052124e-02 5.616397783160209656e-02 1.456372737884521484e-01 1.515129953622817993e-01 1.005614176392555237e-01 -2.135726809501647949e-02 -4.063363187015056610e-03 -3.226796910166740417e-02 -5.553886666893959045e-02 1.050974279642105103e-01 1.383530069142580032e-02 1.503532975912094116e-01 1.815932542085647583e-01 1.669592857360839844e-01 1.510930657386779785e-01 -2.146714553236961365e-02 -5.577522143721580505e-02 -4.695795103907585144e-02 -1.783860772848129272e-01 1.072090044617652893e-01 9.185087680816650391e-02 4.674840718507766724e-02 6.592540442943572998e-02 1.269309408962726593e-02 4.174241423606872559e-02 -1.484880596399307251e-01 2.934814803302288055e-02 -7.132603973150253296e-02 2.735799737274646759e-02 -1.508139967918395996e-01 -1.001191437244415283e-01 2.347695268690586090e-02 -5.217505246400833130e-02 -7.811424136161804199e-02 9.490232169628143311e-02 -8.386906236410140991e-02 -3.170428797602653503e-03 -1.094709187746047974e-01 -4.092396050691604614e-02 6.768673658370971680e-02 4.696921259164810181e-02 4.744926095008850098e-02 5.840818211436271667e-02 -5.741369351744651794e-02 1.199099868535995483e-01 -1.170872673392295837e-01 1.577332764863967896e-01 -6.869726628065109253e-02 1.493556499481201172e-01 9.725179523229598999e-02 -1.491082757711410522e-01 -5.964063107967376709e-02 -5.827970802783966064e-02 -1.580547243356704712e-01 2.428183332085609436e-02 -8.254092186689376831e-02 -3.504509478807449341e-02 -3.748292475938796997e-02 -3.527758270502090454e-02 -1.951823383569717407e-02 6.461346894502639771e-02 -1.252301335334777832e-01 7.791876792907714844e-02 3.950460627675056458e-02 1.179875731468200684e-01 -1.520596742630004883e-01 2.085880190134048462e-01 1.172897294163703918e-01 -8.075458556413650513e-02 -5.704607814550399780e-02 1.617430448532104492e-01 5.784886889159679413e-03 8.794045448303222656e-02 -1.632569171488285065e-02 6.883311271667480469e-02 -2.785365656018257141e-02 -3.112001717090606689e-02 1.355008482933044434e-01 -1.055779680609703064e-01
-1.593148559331893921e-01 4.902644827961921692e-02 -9.903199225664138794e-02 7.604723423719406128e-02 -9.072682261466979980e-02 -1.396922320127487183e-01 1.404685527086257935e-01 3.763615339994430542e-02 -4.795189201831817627e-02 -1.027739867568016052e-01 -6.690293550491333008e-02 -1.263331025838851929e-01 -1.360859572887420654e-01 4.797026887536048889e-02 -5.264976993203163147e-02 -6.511290371417999268e-02 2.202027663588523865e-02 -1.647803783416748047e-01 3.128232061862945557e-02 -3.071535751223564148e-02 -9.676845371723175049e-02 7.079011946916580200e-02 -2.125005125999450684e-01 2.931151725351810455e-02 -1.348768323659896851e-01 8.196876198053359985e-02 1.459385752677917480e-01 -8.214126527309417725e-02 7.391349208774045110e-05 -9.820026904344558716e-02 -1.474103480577468872e-01 6.412757188081741333e-02 -9.684918075799942017e-02 -1.807597875595092773e-01 1.170987486839294434e-01 -1.721172779798507690e-02 9.781306236982345581e-02 1.333851814270019531e-01 8.965462446212768555e-02 -7.554397732019424438e-02 -4.098008573055267334e-02 3.594359010457992554e-02 1.779577136039733887e-01 1.162727624177932739e-01 6.177982315421104431e-02 1.834399700164794922e-01 1.711438149213790894e-01 -2.391633763909339905e-02 -1.252835243940353394e-01 -2.998914569616317749e-02 3.993327170610427856e-02 1.883031725883483887e-01 -3.475448116660118103e-02 4.371443018317222595e-02 5.190503969788551331e-02 1.584264934062957764e-01 1.947128400206565857e-02 -5.752096697688102722e-02 -1.112841814756393433e-01 -7.716348022222518921e-02 -1.555716991424560547e-01 -1.781333237886428833e-01 8.316250145435333252e-02 -1.194176226854324341e-01 -1.254132986068725586e-01 -7.612424343824386597e-02 -4.081603884696960449e-02 9.761799126863479614e-02 7.831614464521408081e-02 1.954139769077301025e-01 -1.509720385074615479e-01 -3.879113867878913879e-02 1.054376363754272461e-01 1.427737623453140259e-01 8.104600757360458374e-02 1.657088547945022583e-01 1.699088811874389648e-01 -4.955103993415832520e-02 5.218875408172607422e-02 1.267908513545989990e-01 1.469711959362030029e-01 1.286285519599914551e-01 -1.771310567855834961e-01 -1.101914793252944946e-02
1.656153649091720581e-01 -1.136826798319816589e-01 3.619981929659843445e-02 -3.849343210458755493e-02 1.009808331727981567e-01 -6.163467466831207275e-02 -1.465106457471847534e-01 -1.464208811521530151e-01 3.081865422427654266e-02 1.085663512349128723e-01 -4.757225140929222107e-02 5.982584878802299500e-02 -1.200987100601196289e-01 -3.651949763298034668e-02 1.037232577800750732e-01 1.783062517642974854e-01 8.440617471933364868e-02 2.386739710345864296e-03 1.380673795938491821e-01 7.819634675979614258e-02 -8.547324687242507935e-02 -1.314131766557693481e-01 1.591417640447616577e-01 2.532551437616348267e-02 -8.670130744576454163e-03 1.677488535642623901e-01 -6.221356615424156189e-02 5.349761247634887695e-02 -6.705428659915924072e-02 5.877193436026573181e-02 -1.442974358797073364e-01 -7.982067763805389404e-02 -1.241837367415428162e-01 -1.037736609578132629e-01 -3.460106998682022095e-02 -1.692752391099929810e-01 9.213443845510482788e-02 2.880671992897987366e-02 -2.642291225492954254e-02 5.253016576170921326e-02 -1.471796184778213501e-01 -1.301887929439544678e-01 -7.524862140417098999e-02 1.384585350751876831e-01 -5.231976509094238281e-02 2.189261652529239655e-02 1.074604913592338562e-01 9.914093464612960815e-02 1.156340092420578003e-01 1.949775405228137970e-02 -5.870330333709716797e-02 -5.621207132935523987e-02 -1.530008614063262939e-01 1.203408092260360718e-02 -4.399953037500381470e-02 -3.172813216224312782e-03 7.489231973886489868e-02 1.512785851955413818e-01 -1.504232138395309448e-01 1.125667691230773926e-01 1.050414144992828369e-01 -2.331361174583435059e-02 4.295298829674720764e-02 -1.258239746093750000e-01 1.052286699414253235e-01 7.385283708572387695e-02 -4.517296329140663147e-02 4.574226960539817810e-02 -5.789342522621154785e-02 -6.935026496648788452e-02 -8.382355421781539917e-02 -1.097506135702133179e-01 -9.156561642885208130e-02 -3.788380697369575500e-02 -5.594035610556602478e-02 -5.598040297627449036e-02 1.760322898626327515e-01 -1.794269382953643799e-01 7.138610631227493286e-02 1.566261947154998779e-01 1.324803978204727173e-01 1.045043766498565674e-01 9.769050776958465576e-02 8.310180157423019409e-02
-2.516105584800243378e-02 -1.548948287963867188e-01 3.650857880711555481e-02 -1.543496847152709961e-01 1.872407644987106323e-02 1.015895530581474304e-01 6.523248553276062012e-02 1.512766480445861816e-01 9.079953283071517944e-02 8.350992947816848755e-02 -1.343891173601150513e-01 -8.981829881668090820e-02 1.120554730296134949e-01 1.455213576555252075e-01 -1.813627034425735474e-01 -3.207517787814140320e-03 5.241266265511512756e-02 2.132288552820682526e-02 7.861410826444625854e-02 1.096624694764614105e-02 -1.770487129688262939e-01 -1.313893049955368042e-01 -1.332268714904785156e-01 -1.498893052339553833e-01 1.038041263818740845e-01 2.912912704050540924e-02 9.992884472012519836e-03 -3.432994708418846130e-02 -2.822780236601829529e-02 3.360505029559135437e-02 -7.500516623258590698e-02 -1.427701264619827271e-01 -1.742563094012439251e-03 2.003007009625434875e-02 1.210824120789766312e-03 -1.375380717217922211e-02 -1.332707107067108154e-01 8.955602534115314484e-03 1.055799201130867004e-01 -1.679353266954421997e-01 6.868773698806762695e-02 5.807180330157279968e-02 -1.614348441362380981e-01 -1.533030718564987183e-01 -1.786802411079406738e-01 8.809641003608703613e-02 1.390701979398727417e-01 -1.058255806565284729e-01 9.836884588003158569e-02 -1.705450564622879028e-01 -7.305009663105010986e-02 -1.738138049840927124e-01 1.292179524898529053e-01 1.089760512113571167e-01 -1.803298480808734894e-02 1.555338352918624878e-01 1.135858967900276184e-01 8.499295450747013092e-03 8.224507421255111694e-02 -1.160422712564468384e-01 1.269914209842681885e-01 1.521810144186019897e-01 -2.299954742193222046e-02 8.660574257373809814e-02 8.233401924371719360e-02 -2.496234513819217682e-02 1.933887153863906860e-01 8.084173896349966526e-04 2.672217600047588348e-02 3.398050367832183838e-02 8.771004527807235718e-02 7.272156327962875366e-02 1.150215417146682739e-01 -4.760436713695526123e-02 1.659070956520736217e-03 -8.504842221736907959e-02 -4.724832251667976379e-02 -1.016172468662261963e-01 9.337512403726577759e-02 1.988546997308731079e-01 -7.007516175508499146e-02 -1.601137369871139526e-01 -1.321623772382736206e-01 -1.236972361803054810e-01
-1.100004687905311584e-01 -1.352595090866088867e-01 2.327921055257320404e-02 5.338328331708908081e-02 -9.121172875165939331e-02 -1.274197269231081009e-02 1.691152155399322510e-01 -9.019920229911804199e-02 1.248048618435859680e-01 1.382627338171005249e-01 1.272392868995666504e-01 -2.136981580406427383e-03 -7.688811421394348145e-02 -5.982968583703041077e-02 -7.282543182373046875e-02 1.579881459474563599e-01 1.241353228688240051e-01 -7.438030838966369629e-02 -5.670095980167388916e-02 -6.417008489370346069e-02 2.936075814068317413e-02 8.023769408464431763e-02 1.552255265414714813e-02 4.290299490094184875e-02 3.026307187974452972e-02 -1.521317064762115479e-01 1.513058096170425415e-01 1.650357246398925781e-01 2.661653235554695129e-02 1.796544045209884644e-01 -1.232935935258865356e-01 -5.840516183525323868e-03 -7.273200899362564087e-03 1.321539133787155151e-01 -4.967509955167770386e-02 -1.643838137388229370e-01 -1.070963032543659210e-02 1.485981196165084839e-01 1.760471463203430176e-01 -5.312629416584968567e-02 -1.037423033267259598e-02 1.560439318418502808e-01 -1.662270277738571167e-01 -6.057333946228027344e-02 1.425241678953170776e-02 7.608197629451751709e-02 -6.403254717588424683e-02 7.259582728147506714e-02 -8.506242185831069946e-02 7.769845426082611084e-02 1.220956146717071533e-01 -1.949904114007949829e-01 -1.420844644308090210e-01 -1.771042868494987488e-02 -1.864424720406532288e-02 1.361723840236663818e-01 1.962453499436378479e-02 -1.298979856073856354e-02 -7.075037807226181030e-03 -1.214110627770423889e-01 -1.460781544446945190e-01 2.774106897413730621e-02 1.038139164447784424e-01 7.883222773671150208e-03 1.513026002794504166e-02 1.324245054274797440e-02 1.998474597930908203e-01 -3.832256048917770386e-02 -6.414672732353210449e-02 8.533579856157302856e-02 9.480106830596923828e-02 -5.772647634148597717e-02 -1.511911898851394653e-01 -9.028773754835128784e-02 3.740293160080909729e-02 1.778854429721832275e-02 1.934908479452133179e-01 -9.405024349689483643e-02 7.481757551431655884e-02 1.094962656497955322e-01 1.080890297889709473e-01 -1.871968209743499756e-01 -8.169300109148025513e-02 -6.550781428813934326e-02
5.697946250438690186e-02 5.679992958903312683e-03 -1.228445917367935181e-01 -1.291506458073854446e-02 -3.566940501332283020e-02 1.049643848091363907e-02 -1.714847534894943237e-01 -1.732402481138706207e-02 1.725209057331085205e-01 -6.615929305553436279e-02 3.627817332744598389e-02 -1.423356086015701294e-01 -1.935726255178451538e-01 4.657021909952163696e-02 1.275009810924530029e-01 -1.393624246120452881e-01 -8.035273849964141846e-02 -1.277451217174530029e-01 -5.640053004026412964e-02 -6.619744002819061279e-02 9.622676670551300049e-02 -7.391251623630523682e-02 2.044736593961715698e-02 -4.495486617088317871e-02 1.346920728683471680e-01 -3.147524222731590271e-02 -6.382679939270019531e-02 1.367539018392562866e-01 -5.434302613139152527e-02 -1.912877559661865234e-01 1.146297454833984375e-01 1.783194243907928467e-01 1.337449550628662109e-01 -7.406570762395858765e-02 1.959826424717903137e-02 -9.805531054735183716e-02 6.432709842920303345e-02 1.642289608716964722e-01 3.256534412503242493e-02 9.101404994726181030e-02 6.735722720623016357e-02 1.791574247181415558e-02 1.552882343530654907e-01 -2.120752446353435516e-02 8.762351423501968384e-02 9.935601055622100830e-02 -1.177812144160270691e-01 -1.243100091814994812e-01 -4.185014963150024414e-02 -4.592471942305564880e-02 1.886700280010700226e-02 6.643826514482498169e-02 2.779447473585605621e-02 -1.302483081817626953e-01 8.712758868932723999e-02 3.396761789917945862e-02 -9.976001828908920288e-02 -1.590354442596435547e-01 -8.017424494028091431e-03 1.968975923955440521e-02 -1.366849988698959351e-01 -3.159771859645843506e-02 -3.611748293042182922e-02 -1.014704182744026184e-01 -1.010926663875579834e-01 -9.337382763624191284e-02 -3.255639970302581787e-02 -1.571075618267059326e-01 -6.415618956089019775e-02 -9.416210465133190155e-03 1.634738445281982422e-01 -1.642862707376480103e-01 2.470311895012855530e-02 -9.532762318849563599e-02 -5.138223641552031040e-04 4.610118921846151352e-03 -3.949113935232162476e-02 9.398944675922393799e-02 -9.737275540828704834e-02 -8.888354152441024780e-02 5.523455888032913208e-02 4.208744317293167114e-02 8.529758453369140625e-02 8.672198653221130371e-02
-6.363974511623382568e-02 -1.075702682137489319e-01 1.443209350109100342e-01 1.047241315245628357e-01 -1.901553869247436523e-01 -1.616787463426589966e-01 3.835058212280273438e-02 2.411671727895736694e-02 -8.610899001359939575e-02 -2.843170240521430969e-02 5.761409923434257507e-02 -5.596014484763145447e-02 -1.853120885789394379e-02 4.702134057879447937e-02 5.568834766745567322e-02 -1.313219666481018066e-01 8.428110927343368530e-02 1.007870063185691833e-01 9.601339697837829590e-02 3.825291525572538376e-03 9.736286848783493042e-02 9.516507387161254883e-02 1.472014039754867554e-01 -4.108473286032676697e-02 1.525544971227645874e-01 -1.825194656848907471e-01 1.517975181341171265e-01 1.443021185696125031e-02 -9.584619104862213135e-02 4.874493181705474854e-02 -7.581640779972076416e-02 1.532221585512161255e-01 4.998161457479000092e-03 1.871872693300247192e-01 -9.922139346599578857e-02 -1.780893802642822266e-01 -1.776474267244338989e-01 -1.266342252492904663e-01 1.389941424131393433e-01 -5.710801482200622559e-02 -6.359625607728958130e-02 1.048786379396915436e-02 6.064178049564361572e-02 -6.146686896681785583e-02 -1.370032131671905518e-01 -1.921149343252182007e-01 6.487957388162612915e-02 -1.015293374657630920e-01 1.293267756700515747e-01 4.461497440934181213e-02 7.140557467937469482e-02 1.215996071696281433e-01 -9.181520342826843262e-02 7.664766907691955566e-02 8.902385085821151733e-02 -5.465252907015383244e-04 1.188221871852874756e-01 -5.362981185317039490e-02 2.939954958856105804e-02 -7.960927486419677734e-02 4.280025511980056763e-02 -1.531689912080764771e-01 -1.582758873701095581e-01 4.164814576506614685e-02 -1.530858725309371948e-01 -1.021443977952003479e-01 9.610732644796371460e-02 -4.993107169866561890e-02 -4.883308336138725281e-02 -5.234745889902114868e-02 -9.727762639522552490e-02 7.869849354028701782e-02 1.491683535277843475e-02 -3.823010623455047607e-02 -1.259722411632537842e-01 -5.507772415876388550e-02 6.090991944074630737e-02 1.359769552946090698e-01 -3.431581333279609680e-02 -7.875372469425201416e-02 -6.236650049686431885e-02 -3.642883384600281715e-03 4.112798720598220825e-02 -1.283671557903289795e-01
5.479118600487709045e-02 2.592010237276554108e-02 5.677291750907897949e-02 -1.153072267770767212e-01 -2.232639677822589874e-02 1.032076850533485413e-01 4.876518994569778442e-02 -4.232790321111679077e-02 -7.417830824851989746e-02 -1.950198784470558167e-02 -1.421330124139785767e-01 -1.177904754877090454e-01 -1.513182371854782104e-01 -1.401319503784179688e-01 1.207429319620132446e-01 -3.623872296884655952e-03 5.723702162504196167e-02 -1.305950731039047241e-01 -3.977240249514579773e-02 3.579380735754966736e-02 9.806385263800621033e-03 -1.894939988851547241e-01 1.067855060100555420e-01 -1.484038978815078735e-01 -6.380945444107055664e-02 9.663010388612747192e-02 -7.293237000703811646e-02 -1.295161694288253784e-01 -4.396118968725204468e-02 -8.542918413877487183e-02 1.329167839139699936e-02 1.585981696844100952e-01 1.434790790081024170e-01 -1.591821312904357910e-01 1.162091344594955444e-01 1.866515874862670898e-01 -4.800977557897567749e-02 7.683127373456954956e-02 1.439764201641082764e-01 -1.376707851886749268e-01 -1.490371525287628174e-01 -5.012964829802513123e-02 -1.384996324777603149e-01 9.576048702001571655e-02 4.352031648159027100e-02 -2.528856880962848663e-02 -9.999432414770126343e-02 -2.471424406394362450e-03 1.271957308053970337e-01 1.219362393021583557e-01 1.745470911264419556e-01 -1.804318577051162720e-01 1.045037060976028442e-01 1.095683965831995010e-02 -1.594093739986419678e-01 1.473323404788970947e-01 1.136052161455154419e-01 1.245018318295478821e-01 -7.519942242652177811e-03 -1.042995527386665344e-01 1.517301797866821289e-01 -1.650703251361846924e-01 8.046594448387622833e-03 -1.112992614507675171e-01 -9.190573543310165405e-02 1.264557093381881714e-01 -4.093249142169952393e-02 -8.235576748847961426e-02 2.171684801578521729e-02 1.656453311443328857e-01 -1.059716865420341492e-01 -4.878588393330574036e-02 -1.389778405427932739e-01 9.660623222589492798e-02 -3.784711658954620361e-02 -1.894928812980651855e-01 -1.238811090588569641e-01 5.913029238581657410e-02 4.649811983108520508e-02 4.654498770833015442e-03 1.108360141515731812e-01 -1.579559147357940674e-01 -1.018700078129768372e-01 -2.937841974198818207e-02
8.585496246814727783e-02 -8.893715590238571167e-02 1.575512886047363281e-01 1.040007472038269043e-01 3.829615563154220581e-02 1.286270767450332642e-01 -1.540609747171401978e-01 -1.030341759324073792e-01 -3.960689529776573181e-02 -1.556530445814132690e-01 3.127967566251754761e-02 4.603956639766693115e-02 -1.403168588876724243e-01 1.517988145351409912e-01 -9.750157594680786133e-02 1.748843044042587280e-01 6.380520015954971313e-02 1.421293020248413086e-01 -1.055441200733184814e-01 3.497928753495216370e-02 8.027331531047821045e-02 -1.982186175882816315e-02 2.277731709182262421e-02 3.430331870913505554e-02 1.767011731863021851e-02 2.416792139410972595e-02 1.157381664961576462e-02 1.502057164907455444e-01 -9.251669049263000488e-02 1.729842126369476318e-01 -5.277023091912269592e-02 1.244423463940620422e-01 4.563085362315177917e-02 2.010457068681716919e-01 -4.333423078060150146e-02 1.478277146816253662e-01 6.075006350874900818e-02 -2.670315094292163849e-02 4.935530200600624084e-02 7.218015193939208984e-02 -1.183014884591102600e-01 5.460140481591224670e-02 -9.000404179096221924e-02 1.242745593190193176e-01 -5.491151288151741028e-02 2.228078991174697876e-02 -3.406031429767608643e-02 8.653756231069564819e-02 4.323734715580940247e-02 -6.885267049074172974e-02 -8.257568627595901489e-02 -1.197170019149780273e-01 5.318704643286764622e-04 1.939810253679752350e-02 -1.229523718357086182e-01 -1.419116407632827759e-01 6.974843889474868774e-02 -5.901106446981430054e-02 9.918994456529617310e-02 -6.638006865978240967e-02 9.390555322170257568e-02 1.333963572978973389e-01 1.770865619182586670e-01 1.448440253734588623e-01 -1.147016435861587524e-01 -5.270934477448463440e-02 -2.743404731154441833e-02 -1.220571994781494141e-01 -1.083608716726303101e-01 -1.044550091028213501e-01 -6.020238995552062988e-02 1.965741859748959541e-03 1.265941858291625977e-01 -1.083744019269943237e-01 1.241704681888222694e-03 -7.634591311216354370e-02 7.434432953596115112e-02 -1.578510701656341553e-01 6.871290504932403564e-02 1.078588813543319702e-01 -1.728147119283676147e-01 -4.066186025738716125e-02 -3.067875653505325317e-02 -8.689359575510025024e-02
6.433496624231338501e-02 -1.130007579922676086e-01 1.587844341993331909e-01 -4.480074718594551086e-02 -6.341443210840225220e-02 -8.233028650283813477e-02 -1.232445314526557922e-01 8.234148472547531128e-02 -7.611000537872314453e-02 1.242382526397705078e-01 3.382016718387603760e-02 3.324055299162864685e-02 -1.065100133419036865e-01 -1.548529118299484253e-01 4.675942286849021912e-02 -5.394504219293594360e-02 -1.485046148300170898e-01 -3.149933880195021629e-03 -1.615871489048004150e-01 -8.006379753351211548e-02 -8.029570430517196655e-02 -5.326141044497489929e-02 3.013105876743793488e-02 7.741190493106842041e-02 1.484190374612808228e-01 6.555911153554916382e-02 -1.894646137952804565e-02 -1.267691254615783691e-01 -1.101837009191513062e-01 1.443465054035186768e-01 1.463186144828796387e-01 1.093535274267196655e-01 -1.714583486318588257e-01 1.177128627896308899e-01 5.231003835797309875e-02 1.516099125146865845e-01 -8.496194332838058472e-02 1.189719885587692261e-01 3.982241451740264893e-02 -2.366430498659610748e-02 -4.809416830539703369e-02 1.692578494548797607e-01 -5.605424195528030396e-02 1.179066747426986694e-01 1.559782326221466064e-01 -5.728374794125556946e-02 -1.340000033378601074e-01 -1.332703083753585815e-01 -1.043360382318496704e-01 -1.491143107414245605e-01 2.490355074405670166e-02 1.113777831196784973e-01 -4.973264783620834351e-02 -1.410537958145141602e-01 -1.421589851379394531e-01 -1.777715831995010376e-01 -1.254170387983322144e-01 5.231763049960136414e-02 -2.758272178471088409e-02 3.013836592435836792e-02 1.548863947391510010e-01 9.603668749332427979e-02 3.255303576588630676e-02 5.045128986239433289e-02 -4.055131599307060242e-02 -3.235947340726852417e-02 1.046087667346000671e-01 8.508067578077316284e-02 1.549738198518753052e-01 1.842134892940521240e-01 2.117866463959217072e-02 1.352952122688293457e-01 -6.757418811321258545e-02 -1.478655338287353516e-01 -9.574625641107559204e-02 1.291049271821975708e-01 -1.091969907283782959e-01 1.378748714923858643e-01 -8.947347849607467651e-02 -8.295312523841857910e-02 -8.337620645761489868e-02 1.608779579401016235e-01 -1.083003822714090347e-03 9.774170070886611938e-02
1.222260668873786926e-01 -5.382556468248367310e-02 -4.213087260723114014e-02 7.104446738958358765e-02 -1.372416913509368896e-01 -8.134193718433380127e-02 1.781910099089145660e-02 5.647880584001541138e-02 -1.013012975454330444e-02 -1.128348410129547119e-01 -6.402097642421722412e-02 -1.928286999464035034e-02 -1.587285846471786499e-01 1.183809153735637665e-02 -9.153060615062713623e-02 6.468013674020767212e-02 -9.449284523725509644e-02 1.423589885234832764e-03 -1.601692438125610352e-01 -1.367861479520797729e-01 1.557738631963729858e-01 1.614267677068710327e-01 -8.361301571130752563e-02 1.634408384561538696e-01 2.344435825943946838e-02 1.205971911549568176e-01 6.448024511337280273e-02 -1.818457841873168945e-01 7.035856693983078003e-02 3.850081237033009529e-03 -8.211643248796463013e-02 1.115294843912124634e-01 1.618572771549224854e-01 8.280284702777862549e-02 1.177792772650718689e-01 -7.578659057617187500e-02 -2.069438807666301727e-03 -1.301083266735076904e-01 -9.588718414306640625e-02 9.974933415651321411e-02 1.509314924478530884e-01 2.042485922574996948e-01 -1.422150731086730957e-01 -1.048963051289319992e-03 1.226110197603702545e-02 5.843646079301834106e-02 1.736072599887847900e-01 -3.637471050024032593e-02 -1.673528552055358887e-01 1.498105823993682861e-01 -1.336621642112731934e-01 -1.350447535514831543e-01 -8.515630662441253662e-02 1.635624468326568604e-01 1.222183480858802795e-01 -1.755752265453338623e-01 6.386152654886245728e-02 1.368838846683502197e-01 -1.048329845070838928e-01 1.853473633527755737e-01 9.523803740739822388e-02 1.679320931434631348e-01 -1.369040757417678833e-01 -1.449940353631973267e-01 1.081333905458450317e-01 -1.285596042871475220e-01 9.361156821250915527e-02 -7.271100580692291260e-02 -2.877356950193643570e-03 -2.142418175935745239e-02 -1.082077547907829285e-01 1.758591830730438232e-01 -8.322371542453765869e-02 1.496102660894393921e-01 -1.323560923337936401e-01 -1.426538266241550446e-02 -1.164944022893905640e-01 1.578448154032230377e-02 7.352190464735031128e-02 1.362913101911544800e-01 3.126510232686996460e-02 1.561802625656127930e-01 1.152403280138969421e-01 -5.151918902993202209e-02
-1.413354873657226562e-01 1.557862609624862671e-01 -1.193796098232269287e-01 8.308068662881851196e-02 -3.156064450740814209e-02 -2.866105362772941589e-02 7.816972583532333374e-02 1.077990755438804626e-01 -1.195706240832805634e-02 1.434901356697082520e-01 7.664347440004348755e-02 -7.192039396613836288e-03 -4.047230631113052368e-02 1.213301345705986023e-01 -3.858397901058197021e-02 -1.657830551266670227e-02 -1.867091059684753418e-01 -3.912220895290374756e-02 2.673866041004657745e-02 5.481709912419319153e-02 -1.720791459083557129e-01 -1.056139767169952393e-01 -1.299321204423904419e-01 -4.487458243966102600e-02 1.758371442556381226e-01 -1.391355991363525391e-01 -6.004963070154190063e-02 -1.638385057449340820e-01 -1.590601801872253418e-01 -5.235162377357482910e-02 1.407900359481573105e-03 1.565387845039367676e-01 -7.019513845443725586e-02 -8.129949122667312622e-02 6.919457763433456421e-02 -8.154177665710449219e-02 -4.913118667900562286e-03 8.106040209531784058e-02 -1.007328703999519348e-01 1.466152667999267578e-01 -1.493800580501556396e-01 -8.334158360958099365e-02 -1.085819583386182785e-02 2.961168438196182251e-02 -9.659323841333389282e-02 -5.169409886002540588e-02 -5.775111168622970581e-02 -5.979488044977188110e-02 -6.332582235336303711e-02 -6.827247887849807739e-02 1.636857837438583374e-01 6.303774565458297729e-02 1.346823871135711670e-01 5.200719833374023438e-02 -1.487244367599487305e-01 2.118753790855407715e-01 -7.553569227457046509e-02 -2.961233630776405334e-02 -1.784966513514518738e-02 3.414312005043029785e-02 1.489907801151275635e-01 7.946746796369552612e-02 -5.260168015956878662e-02 1.270236223936080933e-01 8.193812519311904907e-02 -5.025302246212959290e-02 -1.024633944034576416e-01 -1.800552755594253540e-02 -1.165819466114044189e-01 1.387316286563873291e-01 2.461822330951690674e-02 8.343594148755073547e-03 1.146924346685409546e-01 -8.043715357780456543e-02 2.319127172231674194e-01 -2.052237987518310547e-01 -1.032982692122459412e-01 5.437700450420379639e-02 -1.565710902214050293e-01 8.420038968324661255e-02 -3.987551853060722351e-02 -1.205190941691398621e-01 -1.379168182611465454e-01 1.830048114061355591e-01
-1.196465939283370972e-01 9.710442274808883667e-02 1.489472924731671810e-03 -1.663249731063842773e-02 -1.876206248998641968e-01 -1.574130207300186157e-01 -1.688649654388427734e-01 -1.164881214499473572e-01 1.123106293380260468e-02 9.730804711580276489e-02 -1.552719920873641968e-01 -1.571324840188026428e-02 -1.436954550445079803e-02 4.384988918900489807e-02 1.161818392574787140e-02 1.715925186872482300e-01 1.124220117926597595e-01 -2.110332436859607697e-02 1.585974842309951782e-01 -2.278867550194263458e-02 -1.408566348254680634e-02 2.039566822350025177e-02 1.225380450487136841e-01 5.766115337610244751e-02 1.086378097534179688e-01 4.112606495618820190e-02 9.801875799894332886e-03 1.723829954862594604e-01 -1.294336915016174316e-01 8.492688089609146118e-02 9.367009252309799194e-02 -1.846232265233993530e-01 -1.344274580478668213e-01 -1.402240395545959473e-01 1.748018339276313782e-02 -3.145042806863784790e-02 -5.861255154013633728e-02 -9.713652729988098145e-02 -1.020094901323318481e-01 6.783403456211090088e-02 4.455157741904258728e-02 -1.075177341699600220e-01 -1.334683746099472046e-01 9.729002416133880615e-02 -1.286306232213973999e-01 8.668335527181625366e-02 -4.861372336745262146e-02 1.396363675594329834e-01 1.180653721094131470e-01 9.619551151990890503e-02 -1.497851610183715820e-01 1.211475804448127747e-01 -7.630350999534130096e-03 -1.633804440498352051e-01 -1.539643108844757080e-01 1.160181909799575806e-01 1.656571030616760254e-01 8.203076571226119995e-02 5.160794779658317566e-02 -2.502190321683883667e-02 1.275300234556198120e-01 -1.697450280189514160e-01 -7.830522954463958740e-02 -1.131470724940299988e-01 1.236619800329208374e-01 1.177266240119934082e-01 1.639312803745269775e-01 -1.773576252162456512e-02 -3.410565480589866638e-02 4.080999270081520081e-02 -1.569063812494277954e-01 1.642765402793884277e-01 1.768444329500198364e-01 -1.145307254046201706e-02 5.341672338545322418e-03 7.677952200174331665e-02 -9.827042371034622192e-02 4.278072342276573181e-02 -9.554417431354522705e-02 -7.647436857223510742e-02 -9.775599092245101929e-02 6.541990488767623901e-02 -6.196419149637222290e-02 8.922512084245681763e-02
9.310068935155868530e-02 3.737815469503402710e-02 -5.027621611952781677e-02 4.130389913916587830e-02 -1.081819161772727966e-01 1.849308758974075317e-01 -1.256880313158035278e-01 -2.608276344835758209e-02 1.513083130121231079e-01 -7.416308671236038208e-02 -6.137254461646080017e-02 -3.778320550918579102e-02 1.728860288858413696e-01 -1.610744297504425049e-01 -1.392933726310729980e-01 1.355408430099487305e-01 1.292733848094940186e-01 -1.427912563085556030e-01 -1.035220772027969360e-01 -2.284550517797470093e-01 -1.486350893974304199e-01 -3.802707046270370483e-02 -1.322077214717864990e-01 1.021375730633735657e-01 -4.987034946680068970e-02 -2.556209685280919075e-03 -4.336609691381454468e-02 8.940782397985458374e-02 1.708978563547134399e-01 -5.426410958170890808e-02 1.200270429253578186e-01 9.263042360544204712e-02 1.125883832573890686e-01 6.534231826663017273e-03 -3.746011853218078613e-02 -2.805005572736263275e-02 2.602144479751586914e-01 1.627019494771957397e-01 -4.585016146302223206e-02 1.714054346084594727e-01 4.060671478509902954e-02 2.128069289028644562e-02 -1.045798510313034058e-01 -1.127492189407348633e-01 -1.741014122962951660e-01 1.033916845917701721e-01 1.082429289817810059e-01 3.462892398238182068e-02 -1.219166964292526245e-01 -7.946388423442840576e-02 -1.761672496795654297e-01 1.325366348028182983e-01 -1.134403273463249207e-01 -1.258372366428375244e-01 -1.440809480845928192e-02 -2.317804247140884399e-01 1.762832105159759521e-01 -2.673569321632385254e-02 -1.143342778086662292e-01 -1.280929595232009888e-01 3.082950226962566376e-02 1.761276423931121826e-01 2.524529770016670227e-02 -1.204403042793273926e-01 -1.200720667839050293e-01 -1.438132673501968384e-01 -4.744574800133705139e-02 -2.448501251637935638e-02 -3.174905106425285339e-02 -4.957257211208343506e-02 -9.766938537359237671e-02 1.705902814865112305e-01 -1.956855505704879761e-01 1.142771691083908081e-01 -1.225534677505493164e-01 1.007806733250617981e-01 -6.962319463491439819e-02 1.717829406261444092e-01 1.290980279445648193e-01 1.157189905643463135e-01 -1.750904321670532227e-01 1.538431048393249512e-01 7.099572569131851196e-02 1.767183095216751099e-01
-1.232780218124389648e-01 7.478858530521392822e-02 -2.126756822690367699e-03 -7.687361538410186768e-02 7.760934531688690186e-02 7.686805725097656250e-02 1.371758580207824707e-01 1.343956142663955688e-01 -1.758122146129608154e-01 -8.346144855022430420e-02 -2.933335863053798676e-02 1.614798158407211304e-01 1.551254838705062866e-01 -1.286957710981369019e-01 6.412120908498764038e-02 -5.856933817267417908e-02 -1.415834128856658936e-01 1.819652505218982697e-02 8.205132931470870972e-02 1.045822352170944214e-01 4.564982652664184570e-02 3.093024715781211853e-02 -4.103674367070198059e-02 1.552244573831558228e-01 -1.522144377231597900e-01 1.038740277290344238e-01 -7.635171711444854736e-02 -3.144539892673492432e-02 -1.456704288721084595e-01 1.313222348690032959e-01 -6.835114955902099609e-02 3.672919422388076782e-02 -8.250501006841659546e-02 -3.716062009334564209e-02 2.940655685961246490e-02 1.793794929981231689e-01 1.065491959452629089e-01 -1.452438347041606903e-02 -3.832305595278739929e-02 -1.774391382932662964e-01 1.269044280052185059e-01 -5.752842500805854797e-02 6.520926952362060547e-02 -1.111147850751876831e-01 -6.175107136368751526e-02 -1.540478467941284180e-01 -1.289789825677871704e-01 -1.487207859754562378e-01 9.585558623075485229e-02 6.301885098218917847e-02 -1.086049675941467285e-01 2.419627970084547997e-03 7.543708384037017822e-02 1.188857248052954674e-03 1.003244295716285706e-01 -1.662531942129135132e-01 1.762042492628097534e-01 -2.266157418489456177e-03 -9.279002994298934937e-02 7.405125349760055542e-02 -7.368368096649646759e-03 1.607896536588668823e-01 1.573391854763031006e-01 6.989743560552597046e-02 -2.508953213691711426e-02 1.946789771318435669e-02 7.866965979337692261e-02 -1.611687690019607544e-01 1.064047068357467651e-01 1.707568317651748657e-01 1.630081832408905029e-01 6.530869007110595703e-02 -4.972748085856437683e-02 -1.074054390192031860e-01 5.713859945535659790e-02 8.757741749286651611e-02 -2.634388627484440804e-03 -6.061332300305366516e-02 -9.468425065279006958e-02 -4.706446081399917603e-02 -1.384839266538619995e-01 3.531871363520622253e-02 2.298328652977943420e-02 4.305369779467582703e-02
-5.418513715267181396e-02 -1.688889861106872559e-01 -6.179476156830787659e-02 -1.788603961467742920e-01 -8.279317617416381836e-02 1.338560581207275391e-01 4.346346110105514526e-02 3.319930657744407654e-02 9.872782975435256958e-03 -1.183111369609832764e-01 -1.652454137802124023e-01 -9.702368825674057007e-02 2.042396366596221924e-01 6.176655367016792297e-02 -4.118491709232330322e-02 1.222729682922363281e-01 2.168037183582782745e-02 6.398152094334363937e-03 1.213617250323295593e-02 -1.736433058977127075e-01 6.004865840077400208e-02 1.402155160903930664e-01 -7.306362688541412354e-02 1.041974052786827087e-01 2.307687513530254364e-02 -2.730941213667392731e-02 -1.067546755075454712e-01 -1.247809454798698425e-01 5.235784687101840973e-03 -1.031635254621505737e-01 -1.328438073396682739e-01 -6.187061592936515808e-02 -8.351901918649673462e-02 -1.602724045515060425e-01 7.501676678657531738e-02 1.152634844183921814e-01 -4.449750483036041260e-02 1.684276014566421509e-01 1.786752343177795410e-01 -4.183913022279739380e-02 -2.359089441597461700e-03 -1.249939426779747009e-01 1.208717674016952515e-01 6.366177648305892944e-02 -1.328742653131484985e-01 -1.268948614597320557e-01 1.029100418090820312e-01 -1.678169518709182739e-01 -1.355783790349960327e-01 1.042062044143676758e-01 -4.183647781610488892e-02 -5.112170800566673279e-02 -1.546161174774169922e-01 3.386165946722030640e-02 -9.079872816801071167e-02 -1.856475025415420532e-01 5.184938386082649231e-02 -2.546499483287334442e-02 -3.139345720410346985e-02 4.715028777718544006e-02 -1.533787101507186890e-01 8.294826745986938477e-02 -5.488602072000503540e-02 -1.958012208342552185e-02 1.965893208980560303e-01 -1.023909673094749451e-01 -1.264251470565795898e-01 -2.377034537494182587e-02 -1.625757217407226562e-01 1.450561583042144775e-01 1.425734460353851318e-01 -8.965505659580230713e-02 -6.181638687849044800e-02 -7.132604718208312988e-02 4.857530817389488220e-02 1.413017213344573975e-01 1.438998132944107056e-01 -1.740942448377609253e-01 1.940347403287887573e-01 -1.248228624463081360e-01 5.156771838665008545e-02 1.249770447611808777e-01 1.296533346176147461e-01 1.009099483489990234e-01
