2.807182967662811279e-01 -1.247766539454460144e-01 1.401230841875076294e-01 1.531343907117843628e-01 1.823329627513885498e-01 -1.901776641607284546e-01 3.053333759307861328e-01 2.333014458417892456e-02 -5.863719270564615726e-04 -3.091310858726501465e-01
-4.852494969964027405e-02 2.731216251850128174e-01 4.802576452493667603e-02 -1.748534590005874634e-01 3.208889365196228027e-01 -1.854314059019088745e-01 -3.274703621864318848e-01 2.190637290477752686e-01 -2.952722311019897461e-01 6.797446310520172119e-02
2.334982156753540039e-01 -1.489279568195343018e-01 -3.064956367015838623e-01 2.633737623691558838e-01 3.428887426853179932e-01 -1.181582286953926086e-01 1.280561685562133789e-01 1.281873136758804321e-01 -7.172442972660064697e-02 1.953143477439880371e-01
-2.766069769859313965e-01 -5.541677772998809814e-02 -1.604088395833969116e-01 2.425433546304702759e-01 -1.711207777261734009e-01 -1.864014416933059692e-01 5.142310634255409241e-02 -8.874224126338958740e-02 -3.365661203861236572e-01 1.298643499612808228e-01
-2.376073598861694336e-01 3.304866254329681396e-01 1.411307305097579956e-01 3.222567960619926453e-02 1.340926438570022583e-01 1.128427982330322266e-01 -7.012448459863662720e-02 1.537251770496368408e-01 5.767062678933143616e-02 -3.469236567616462708e-02
5.854414775967597961e-02 -2.589521706104278564e-01 3.198690116405487061e-01 3.382076621055603027e-01 -8.847581595182418823e-02 -2.124516069889068604e-01 -2.950935065746307373e-01 -3.255910873413085938e-01 -1.150382906198501587e-01 -7.704505324363708496e-02
-2.288008853793144226e-02 1.397389024496078491e-01 -3.192215263843536377e-01 -7.916737347841262817e-02 1.680227518081665039e-01 6.584678590297698975e-02 7.034942507743835449e-02 3.038399219512939453e-01 -3.477523028850555420e-01 2.031200677156448364e-01
-7.867265492677688599e-02 -1.691400110721588135e-01 1.685631871223449707e-01 -2.416819781064987183e-01 -1.980295181274414062e-01 1.483139991760253906e-01 -3.814553841948509216e-02 -2.472513020038604736e-01 -3.011290132999420166e-01 -2.828850643709301949e-03
-1.997994929552078247e-01 -1.021187081933021545e-01 1.129271686077117920e-01 3.646641969680786133e-01 -2.760196924209594727e-01 3.097601234912872314e-01 1.232397109270095825e-01 1.895667910575866699e-01 4.498916491866111755e-02 -1.991735249757766724e-01
-7.081692665815353394e-02 -7.067708671092987061e-02 -3.554578125476837158e-01 -3.612087294459342957e-02 -1.536989212036132812e-01 -1.878679096698760986e-01 2.960287034511566162e-01 -1.061926130205392838e-02 3.226178288459777832e-01 2.361696958541870117e-01
-3.030287027359008789e-01 2.972093783318996429e-02 1.399335414171218872e-01 1.398085951805114746e-01 2.297215014696121216e-01 2.100335806608200073e-01 1.240858435630798340e-01 -2.360130697488784790e-01 -4.205313697457313538e-02 -2.620090497657656670e-03
1.219944134354591370e-01 -1.123397648334503174e-01 6.707137823104858398e-02 7.737293094396591187e-02 2.481151968240737915e-01 6.445407122373580933e-02 1.247778683900833130e-01 -4.039694070816040039e-01 -2.070970684289932251e-01 1.691277325153350830e-01
3.277562856674194336e-01 -1.316282749176025391e-01 -4.418256878852844238e-02 1.837799549102783203e-01 -1.803980320692062378e-01 3.105117082595825195e-01 -7.965647429227828979e-02 2.830361425876617432e-01 2.085896395146846771e-02 -1.876033395528793335e-01
-2.793881893157958984e-01 8.094856142997741699e-02 2.667894773185253143e-02 -3.687536120414733887e-01 -1.302211638540029526e-02 2.431473284959793091e-01 -8.164968341588973999e-02 3.302046656608581543e-01 -4.069992899894714355e-02 6.852163467556238174e-03
-1.341311037540435791e-01 1.563805937767028809e-01 -2.831701338291168213e-01 -2.895995676517486572e-01 -6.306931376457214355e-02 8.340260386466979980e-02 3.369380533695220947e-01 -1.965927034616470337e-01 1.381403654813766479e-01 -1.604176461696624756e-01
-3.479667706415057182e-03 -2.619974315166473389e-01 -2.804891020059585571e-02 1.157581284642219543e-01 -1.093588769435882568e-01 -9.232465922832489014e-02 2.880520224571228027e-01 -2.475686967372894287e-01 -1.081194207072257996e-01 -4.541059955954551697e-02
2.554767429828643799e-01 -2.383296042680740356e-01 1.313278079032897949e-01 -7.157911360263824463e-02 -2.866395413875579834e-01 -6.355817895382642746e-03 1.962451934814453125e-01 -1.772813796997070312e-01 2.538297474384307861e-01 -2.001613676548004150e-01
3.978924453258514404e-01 -8.205805718898773193e-02 1.996566504240036011e-01 -3.262304365634918213e-01 1.195771694183349609e-01 -1.002021785825490952e-02 -2.294745594263076782e-01 -2.649177610874176025e-01 2.404527924954891205e-02 -2.122035026550292969e-01
-2.412933669984340668e-02 -1.149929910898208618e-01 4.289884120225906372e-02 -3.430387973785400391e-01 -2.617292106151580811e-01 -1.189998239278793335e-01 3.512551784515380859e-01 -2.636684477329254150e-01 3.706345558166503906e-01 1.100175231695175171e-01
1.833818703889846802e-01 -2.749386727809906006e-01 -2.232973426580429077e-01 -2.994039356708526611e-01 8.300492912530899048e-02 3.311740756034851074e-01 2.275206297636032104e-01 -7.270365953445434570e-02 -7.982923835515975952e-02 2.830848395824432373e-01
-1.582891196012496948e-01 -2.166823595762252808e-01 1.629059910774230957e-01 5.339256674051284790e-02 3.048113882541656494e-01 -3.777930736541748047e-01 -6.054160371422767639e-02 -2.222909331321716309e-01 1.858299225568771362e-01 7.704290747642517090e-02
1.209015920758247375e-01 1.208935678005218506e-01 3.194629549980163574e-01 -9.512677788734436035e-03 -1.846138983964920044e-01 -3.141037225723266602e-01 -2.609439790248870850e-01 -8.919613063335418701e-02 -2.361790835857391357e-01 1.893735975027084351e-01
2.270038276910781860e-01 -6.289443373680114746e-02 -3.050636351108551025e-01 -3.033581674098968506e-01 2.185320854187011719e-01 -3.541550040245056152e-01 1.938502788543701172e-01 2.249712198972702026e-01 3.351827561855316162e-01 1.802692562341690063e-02
-2.223486900329589844e-01 -8.127670735120773315e-02 -3.283668160438537598e-01 2.328748106956481934e-01 4.495147615671157837e-03 3.263407200574874878e-02 -1.965078115463256836e-01 8.207067102193832397e-02 4.660318419337272644e-02 -1.730713844299316406e-01
7.552566379308700562e-02 -3.196029067039489746e-01 4.540959000587463379e-02 -9.727248549461364746e-02 3.544138669967651367e-01 -2.618733346462249756e-01 -1.930134594440460205e-01 8.554803580045700073e-02 -3.125928640365600586e-01 3.182253837585449219e-01
-2.342149168252944946e-01 -2.291000038385391235e-01 -1.015902981162071228e-01 2.255196683108806610e-02 -1.189171075820922852e-01 9.821799397468566895e-02 3.521429598331451416e-01 -2.199897170066833496e-01 -1.237597689032554626e-01 2.379900775849819183e-02
-1.020915731787681580e-01 2.067595422267913818e-01 -1.568557471036911011e-01 -5.391571298241615295e-02 6.507719308137893677e-02 1.468561291694641113e-01 7.323712110519409180e-02 1.582018882036209106e-01 2.388767153024673462e-02 1.736641377210617065e-01
9.940604865550994873e-02 -2.677142322063446045e-01 1.671769917011260986e-01 -1.973857879638671875e-01 1.549988090991973877e-01 -3.381448611617088318e-02 1.075742766261100769e-02 -1.490132361650466919e-01 2.859945595264434814e-01 1.356021035462617874e-02
-3.516863882541656494e-01 2.480285614728927612e-01 7.925534620881080627e-03 1.299502551555633545e-01 -2.396008074283599854e-01 -2.734389603137969971e-01 2.482554912567138672e-01 -1.042395010590553284e-01 1.047957986593246460e-01 -2.281534373760223389e-01
6.938917189836502075e-02 -1.961305290460586548e-01 -1.801864057779312134e-01 -1.257348246872425079e-02 -2.884843945503234863e-01 2.626090496778488159e-02 2.253399640321731567e-01 3.032975792884826660e-01 -7.142955437302589417e-03 2.473575472831726074e-01
-2.599708735942840576e-01 1.317017376422882080e-01 1.852849870920181274e-01 -1.916374713182449341e-01 6.167318671941757202e-02 1.156229898333549500e-01 1.422382444143295288e-01 1.375123411417007446e-01 5.679333955049514771e-02 -1.762842833995819092e-01
-2.177357822656631470e-01 2.470585107803344727e-01 -3.605462238192558289e-02 -2.925321757793426514e-01 2.265161424875259399e-01 -2.634260952472686768e-01 2.158591747283935547e-01 -2.581577897071838379e-01 -2.510032616555690765e-02 1.800994575023651123e-01
-1.966513693332672119e-01 2.721900586038827896e-03 -3.116481602191925049e-01 1.233550906181335449e-02 1.416512951254844666e-02 -2.714240252971649170e-01 -2.108152210712432861e-01 7.115411013364791870e-02 -1.402631849050521851e-01 2.246466726064682007e-01
2.590978741645812988e-01 -2.352601438760757446e-01 3.974764142185449600e-03 -1.674405485391616821e-01 2.700343132019042969e-01 -2.087335288524627686e-01 2.879794538021087646e-01 4.605638328939676285e-03 -1.771329790353775024e-01 1.206568405032157898e-01
-2.527338862419128418e-01 -2.554928064346313477e-01 -2.934913337230682373e-01 8.904081583023071289e-02 3.272626101970672607e-01 2.448597401380538940e-01 2.248166352510452271e-01 2.442107200622558594e-01 -2.816043607890605927e-02 -1.861810237169265747e-01
2.799957394599914551e-01 4.164306819438934326e-02 1.564817279577255249e-01 -3.901596665382385254e-01 1.003363751806318760e-03 2.951728701591491699e-01 1.307971924543380737e-01 2.984542846679687500e-01 -9.997150301933288574e-02 -8.415590226650238037e-02
-1.419014185667037964e-01 -2.143012136220932007e-01 3.042511940002441406e-01 2.885040938854217529e-01 -1.487416774034500122e-01 -3.399310410022735596e-01 1.125528067350387573e-01 4.530377686023712158e-02 -2.732617259025573730e-01 -2.915006577968597412e-01
-9.848444722592830658e-03 9.736207872629165649e-02 -1.709232926368713379e-01 -1.472352892160415649e-01 -4.018100723624229431e-02 -3.136319220066070557e-01 -3.693237528204917908e-02 -2.514673471450805664e-01 2.181827425956726074e-01 -3.402879238128662109e-01
2.251940369606018066e-01 -1.989836841821670532e-01 2.493383362889289856e-02 1.514177024364471436e-01 -2.359170615673065186e-01 4.933084547519683838e-02 -1.327433884143829346e-01 3.006899729371070862e-03 6.850130856037139893e-02 3.677807748317718506e-02
-2.772608958184719086e-02 -2.670960724353790283e-01 3.378441631793975830e-01 6.790196150541305542e-02 2.264646887779235840e-01 -2.057587355375289917e-01 3.576738536357879639e-01 -1.454762667417526245e-01 -5.198602564632892609e-03 -8.562302589416503906e-02
-1.803488135337829590e-01 3.018083870410919189e-01 7.255723327398300171e-02 2.269643843173980713e-01 1.326999664306640625e-01 -2.954249083995819092e-01 1.277845054864883423e-01 -1.266376823186874390e-01 1.506507545709609985e-01 7.279938459396362305e-02
1.076998040080070496e-01 -1.252976506948471069e-01 2.239906191825866699e-01 3.832240998744964600e-01 2.353554517030715942e-01 3.686842918395996094e-01 -8.192434161901473999e-02 -2.321469932794570923e-01 -2.083291113376617432e-01 1.844678521156311035e-01
3.944601863622665405e-02 3.315163850784301758e-01 -3.577889800071716309e-01 -2.619398012757301331e-02 7.291051559150218964e-03 2.626671195030212402e-01 6.269790232181549072e-02 -2.593131363391876221e-01 2.277354896068572998e-01 1.001045554876327515e-01
2.152825593948364258e-01 1.320679336786270142e-01 -1.358992606401443481e-01 -1.785668134689331055e-01 -7.828317582607269287e-02 1.953122951090335846e-02 3.442968130111694336e-01 7.147578895092010498e-02 -6.348930299282073975e-02 6.708425283432006836e-02
6.839805096387863159e-02 2.933833003044128418e-01 -1.957088857889175415e-01 -1.919591724872589111e-01 -5.051574483513832092e-02 2.859074771404266357e-01 2.800063192844390869e-01 -1.114874184131622314e-01 -2.760613337159156799e-02 -2.548804879188537598e-01
2.395988851785659790e-01 1.783032119274139404e-01 2.558761537075042725e-01 -1.012495830655097961e-01 4.348879680037498474e-03 1.289827227592468262e-01 -1.480020675808191299e-02 1.493356470018625259e-02 -2.057543098926544189e-01 -2.862776517868041992e-01
1.606913059949874878e-01 -3.102075159549713135e-01 -3.431084454059600830e-01 2.396908104419708252e-01 2.118858098983764648e-01 3.474045693874359131e-01 -9.229076653718948364e-02 -3.084189295768737793e-01 3.106640279293060303e-01 1.143340095877647400e-01
3.198065161705017090e-01 -2.498128563165664673e-01 1.258848756551742554e-01 -1.421648412942886353e-01 8.858893811702728271e-02 -1.173541396856307983e-01 2.372905313968658447e-01 -1.376933157444000244e-01 -1.383067071437835693e-01 -3.784711360931396484e-01
1.579801365733146667e-02 -1.886131316423416138e-01 1.023382246494293213e-01 -2.138450592756271362e-01 -1.168628036975860596e-01 -2.830013930797576904e-01 -1.096759885549545288e-01 2.236190587282180786e-01 2.461717277765274048e-01 4.301777482032775879e-01
1.395622035488486290e-03 -1.133612450212240219e-02 -1.080531775951385498e-01 7.944899052381515503e-02 2.062685638666152954e-01 3.150562942028045654e-02 2.394407689571380615e-01 2.761069238185882568e-01 -2.845119237899780273e-01 -5.194265022873878479e-02
-2.504988610744476318e-01 -7.143980264663696289e-02 -3.032574951648712158e-01 -2.377483397722244263e-01 4.121662974357604980e-01 1.149598732590675354e-01 -2.558808922767639160e-01 1.184425503015518188e-01 1.759870201349258423e-01 8.416847884654998779e-02
5.955660343170166016e-02 2.446210384368896484e-01 2.740800380706787109e-01 -7.873916998505592346e-03 -2.232003211975097656e-01 -7.788987457752227783e-02 2.936165630817413330e-01 -1.777371913194656372e-01 -2.811907231807708740e-01 -2.895441353321075439e-01
5.207888036966323853e-02 -1.809375882148742676e-01 -2.512413859367370605e-01 -5.111184716224670410e-02 3.093069791793823242e-01 2.975610196590423584e-01 1.750876158475875854e-01 1.843741238117218018e-01 -8.371624350547790527e-02 1.970951259136199951e-01
6.624114513397216797e-02 -5.916678160429000854e-02 2.340920567512512207e-01 -2.190386690199375153e-02 9.156449884176254272e-02 1.391475647687911987e-01 2.153437957167625427e-02 -2.632821500301361084e-01 -2.050908096134662628e-02 2.535128034651279449e-03
1.120544746518135071e-01 -8.301308751106262207e-02 -1.488295663148164749e-02 3.079000115394592285e-01 1.338057778775691986e-02 -2.984849810600280762e-01 1.470230221748352051e-01 8.149745315313339233e-02 5.903043225407600403e-02 1.879956126213073730e-01
-2.702086567878723145e-01 2.298628091812133789e-01 -2.254380583763122559e-01 -2.441277205944061279e-01 7.284242892637848854e-04 3.130645453929901123e-01 2.643152475357055664e-01 -3.205440044403076172e-01 -1.980946958065032959e-01 2.127291411161422729e-01
2.408049553632736206e-01 -3.113543391227722168e-01 4.751367494463920593e-02 1.934118270874023438e-01 2.375225871801376343e-01 -1.298526972532272339e-01 -1.822932623326778412e-02 3.027506768703460693e-01 -1.049108877778053284e-01 3.904808312654495239e-02
-2.327186316251754761e-01 -1.563540399074554443e-01 -5.775344744324684143e-02 9.222634881734848022e-02 -2.353867739439010620e-01 -2.041670531034469604e-01 -2.903648652136325836e-02 4.807340353727340698e-02 1.860232800245285034e-01 1.279486119747161865e-01
-3.781609237194061279e-01 2.063622921705245972e-01 -1.801245063543319702e-01 -6.893249601125717163e-02 3.351675570011138916e-01 -1.432026326656341553e-01 7.969278842210769653e-02 -3.158194720745086670e-01 4.242547154426574707e-01 -2.671447098255157471e-01
2.715255022048950195e-01 1.236367076635360718e-01 2.560460269451141357e-01 2.625096738338470459e-01 -1.492534130811691284e-01 2.006687968969345093e-01 2.844055294990539551e-01 -2.934096753597259521e-01 -1.566370278596878052e-01 -4.541952535510063171e-02
1.162964105606079102e-01 -1.155843585729598999e-01 4.005960002541542053e-02 1.017456352710723877e-01 1.554910987615585327e-01 -3.218358755111694336e-01 -9.861842542886734009e-02 4.268689453601837158e-01 -2.414184361696243286e-01 -1.783570051193237305e-01
1.866979748010635376e-01 1.250586360692977905e-01 3.414713740348815918e-01 -4.979021847248077393e-02 1.238003373146057129e-02 -3.190475404262542725e-01 -2.924408018589019775e-01 -2.265038639307022095e-01 -1.132225319743156433e-01 2.025174647569656372e-01
2.732221782207489014e-01 1.684054136276245117e-01 -3.652037307620048523e-02 9.148905426263809204e-02 -7.774099707603454590e-02 3.671857118606567383e-01 -2.022646367549896240e-01 2.731218934059143066e-01 -2.867119759321212769e-02 -5.272872745990753174e-02
2.154777385294437408e-02 1.583883762359619141e-01 -1.226893812417984009e-01 -1.079398915171623230e-01 2.023291289806365967e-01 -2.776679396629333496e-01 -1.679252982139587402e-01 -9.052077680826187134e-02 2.774493023753166199e-02 3.436009287834167480e-01
5.230982974171638489e-02 -3.669587671756744385e-01 -1.932690590620040894e-01 5.272243171930313110e-02 -2.543311715126037598e-01 3.751084208488464355e-01 -1.652361154556274414e-01 -7.454700767993927002e-02 1.186984777450561523e-01 -1.411424279212951660e-01
-2.043484896421432495e-01 9.388238191604614258e-02 -1.286296546459197998e-01 -5.399580299854278564e-02 1.044588759541511536e-01 -1.321119964122772217e-01 -2.052721194922924042e-02 -2.785078287124633789e-01 -1.326229274272918701e-01 -2.465436011552810669e-01
2.510350048542022705e-01 -1.799690574407577515e-01 -3.570169210433959961e-01 2.755067348480224609e-01 1.875271797180175781e-01 1.965706944465637207e-01 -9.206005185842514038e-02 1.735668927431106567e-01 6.252990663051605225e-02 2.147383093833923340e-01
-2.523867487907409668e-01 -8.581829071044921875e-02 2.818324565887451172e-01 4.070903360843658447e-02 2.078308314085006714e-01 2.165530025959014893e-01 -1.994250714778900146e-01 7.460944354534149170e-02 -2.226637601852416992e-01 -2.096646726131439209e-01
6.715765688568353653e-03 -3.864555060863494873e-02 -1.252426356077194214e-01 1.475237905979156494e-01 -6.434590369462966919e-02 -9.645171463489532471e-02 -1.100286915898323059e-01 1.112497691065073013e-02 5.827049911022186279e-02 2.297191768884658813e-01
2.298377454280853271e-01 -2.322064787149429321e-01 -1.610860377550125122e-01 2.761691510677337646e-01 -1.532448083162307739e-01 4.154461026191711426e-01 3.006695210933685303e-01 -2.995186485350131989e-02 -1.918771266937255859e-01 -9.092910587787628174e-02
-1.609518826007843018e-01 2.251260131597518921e-01 1.719134002923965454e-01 -3.418893814086914062e-01 8.878535777330398560e-02 -1.566055119037628174e-01 2.011712938547134399e-01 1.357289254665374756e-01 1.173236668109893799e-01 -7.562953978776931763e-02
2.472542822360992432e-01 1.534965913742780685e-02 2.722914516925811768e-01 4.135973006486892700e-02 -2.484592795372009277e-01 2.226178497076034546e-01 3.294664025306701660e-01 4.269480705261230469e-02 -2.406315505504608154e-01 1.161508038640022278e-01
5.573102831840515137e-02 -2.963853478431701660e-01 -1.892881989479064941e-01 -3.688015639781951904e-01 3.481292128562927246e-01 2.494045794010162354e-01 5.973241105675697327e-02 -2.194037139415740967e-01 1.051897704601287842e-01 -3.521292507648468018e-01
-1.566055268049240112e-01 1.415398269891738892e-01 -2.074305862188339233e-01 2.852912843227386475e-01 1.408848464488983154e-01 -1.856569014489650726e-02 -6.911826878786087036e-02 1.506598442792892456e-01 -2.423258274793624878e-01 -1.592272222042083740e-01
7.674488425254821777e-02 2.603890895843505859e-01 1.610795259475708008e-01 -1.436384022235870361e-01 2.802329659461975098e-01 1.370823681354522705e-01 1.447381675243377686e-01 -2.106730341911315918e-01 -2.265196442604064941e-01 3.121994137763977051e-01
3.503960371017456055e-01 -2.229033261537551880e-01 2.456530183553695679e-01 2.201956510543823242e-01 -2.827665805816650391e-01 8.230643719434738159e-02 -1.787917315959930420e-01 -2.224811017513275146e-01 1.957495659589767456e-01 -3.055837154388427734e-01
1.654967814683914185e-01 2.938820719718933105e-01 -2.238800972700119019e-01 -1.203219033777713776e-02 -3.124394416809082031e-01 2.160622030496597290e-01 -2.693428099155426025e-01 -3.396651521325111389e-02 3.269913494586944580e-01 -2.422328740358352661e-01
-1.894089430570602417e-01 -2.746583148837089539e-02 3.639012873172760010e-01 -2.765817046165466309e-01 1.307979077100753784e-01 3.460817970335483551e-03 8.146870881319046021e-02 1.510465592145919800e-01 1.655440628528594971e-01 -3.359547555446624756e-01
2.755493223667144775e-01 3.314942121505737305e-02 -5.598460324108600616e-03 9.348450601100921631e-02 -2.124834507703781128e-01 8.375216275453567505e-02 -2.685669958591461182e-01 2.799369692802429199e-01 -1.657132208347320557e-01 -3.235058784484863281e-01
-2.146572023630142212e-01 -2.913708686828613281e-01 -3.028760850429534912e-01 -1.848326623439788818e-01 -1.954064071178436279e-01 2.283768951892852783e-01 -1.097804754972457886e-01 5.491552129387855530e-02 1.301752328872680664e-01 7.164113968610763550e-02
-1.522167921066284180e-01 -9.771957993507385254e-02 -3.360745310783386230e-01 1.025044731795787811e-02 -9.110850095748901367e-02 2.365298122167587280e-01 -2.490506023168563843e-01 -1.951192468404769897e-01 1.397874057292938232e-01 -1.893970416858792305e-03
2.079185247421264648e-01 1.707967519760131836e-01 2.084929198026657104e-01 1.236531510949134827e-01 2.052965462207794189e-01 -2.819585800170898438e-01 7.418501377105712891e-02 -2.132978290319442749e-01 -5.895755719393491745e-03 -2.431746125221252441e-01
-3.026010394096374512e-01 -2.777878940105438232e-01 8.412195742130279541e-02 8.856335282325744629e-02 3.085398972034454346e-01 1.312827020883560181e-01 7.360725849866867065e-02 2.199939191341400146e-01 1.706058382987976074e-01 1.947069168090820312e-02
-2.298678606748580933e-01 1.900588274002075195e-01 -1.938303560018539429e-01 2.848561406135559082e-01 9.014655649662017822e-02 -1.797291636466979980e-01 -3.419957756996154785e-01 2.248113974928855896e-02 -1.461957842111587524e-01 1.407251060009002686e-01
